732 13
Bb7 -0.39400464 0.55983776 -0.6967779 1.464333 -1.0393772 -2.483073 1.1050105 -1.086136 1.0196035 1.6524985 -1.5791343 -1.7008666 0.3554496
D7 0.972422 0.56196654 0.40228295 -0.58962196 -0.7880672 -3.0831292 0.9570871 -1.5565779 -0.9892467 -0.5009587 2.0368652 0.53675777 0.4202641
C7 -0.42916763 1.510144 0.6860134 1.0884842 -1.009844 -2.3515654 0.9679685 -1.0212119 -1.9639969 1.6956652 0.8166569 -1.1691344 -0.34310445
F7 0.434667 0.9783328 -0.093551785 0.5778552 -0.69332415 -2.9625769 0.8635131 0.8204693 -1.2260909 1.6546379 -0.9189713 -1.1014551 1.8020242
B7 1.2467631 -0.8963525 -0.88187563 0.8233116 -0.62698555 -0.50542676 0.6318086 -2.168316 1.0152264 2.4546 1.7664292 1.6586475 0.07855213
Eb7 1.4176685 0.71116686 -0.8353718 -0.7441824 -1.9339042 -1.0730302 1.8356866 -0.021567233 1.1863303 1.4434915 -0.7876903 -2.0658612 0.7857823
Db7 -0.12459748 0.38299352 -1.9209194 -0.517149 -2.5617204 -0.28733525 1.0913858 -0.080073886 1.5791588 1.9855887 1.8842839 -0.06397344 0.28586718
Gb7 1.0110172 -1.2971019 -1.7143862 -0.06524881 -1.9386204 0.00074913417 1.1774083 -0.4859504 0.6594216 1.7577157 0.32892647 1.6230602 2.0106442
E7 2.5240927 -0.15330875 -0.7728884 -0.91409326 0.81840426 -1.198675 1.3625582 -0.83593935 -0.3464854 1.4469637 1.4409707 1.8509288 0.882639
G7 0.1473572 0.06990818 0.31276447 -0.29481113 -0.8824756 -2.3358219 -0.08007982 -2.1348345 -2.7796707 0.5585565 -0.036266524 -0.099184394 1.4789724
Ab7 -0.13112642 -0.3564692 -2.7603106 -0.7389892 -1.6068201 -0.5192499 0.30722836 -1.1526431 0.71429765 1.8500438 -0.33031264 -1.5451899 1.2450136
A7 0.47578272 -0.7682922 -1.6349124 0.19993567 0.8004822 -1.9475034 1.2724482 -2.4636447 -1.0374131 -0.116189554 1.2941236 1.0459024 0.4772795
F-7 0.09344896 1.3811426 -0.63280016 2.3102057 -1.5300585 -1.1066753 0.19991338 -1.3355097 0.7259629 1.2504061 -2.1561997 -1.8077344 -0.54770786
A-7 2.3290253 1.7239075 0.45097214 -0.4187188 -1.0632454 -1.9216378 0.80729526 -1.1877506 -1.5452529 -1.5259085 1.7504559 0.84158874 -0.3281855
G-7 0.2960224 2.591857 0.20113419 1.979045 -1.3350021 -2.077227 1.1059934 -0.5085632 -2.1130114 0.07638613 0.55064195 -1.3185055 -1.0859334
Gb-7 1.3875946 0.2140731 -1.2429334 1.1263578 -0.14195096 -0.21275508 -1.2858435 -1.5276253 1.0492824 1.8954085 2.4063103 2.0197346 -0.4387634
Bb-7 2.2286513 1.9666771 -1.1222389 -0.57052636 -1.9387898 -0.1057343 0.9109704 0.8587639 0.8825606 1.427665 -1.2750425 -1.9523343 0.44846594
Ab-7 0.8850382 1.3635012 -2.0653663 -0.08641901 -2.4969783 0.045713488 0.020206615 0.46645585 2.6495492 1.2234898 1.5773437 0.45725957 -0.14818524
B-7 3.2254734 0.45921868 -1.5782341 -0.5954673 0.79990965 -0.49095854 0.41931662 0.123898335 -0.7618571 0.36707368 1.7311163 2.5122437 1.0803797
C-7 0.99693376 1.694378 -0.15330422 0.99634933 -1.0946974 -2.4115717 -0.3404874 1.0994687 -1.3852272 0.14221291 -1.938974 -1.2352164 1.9148633
Db-7 1.9814608 -0.95004034 -2.471179 -0.14621922 -1.5138091 0.6298179 -0.7039248 -0.5531824 1.0082164 1.0048686 -0.2424355 1.8914745 2.201036
D-7 1.0115397 0.90368575 -0.3560903 0.32371366 -0.15816969 -1.7849612 -0.41094553 -2.2266743 -3.6162002 -0.47248527 -0.86302817 -0.20513903 0.95264715
Eb-7 -0.059335314 0.3389727 -3.80083 0.44943538 -1.4871715 0.23374225 -0.5793293 -0.82372487 1.0607576 1.586071 -0.9661016 -1.2829676 0.85936767
E-7 0.8380948 -0.22932513 -1.980687 1.3848083 0.5567298 -1.4256604 0.22627552 -2.7780142 -1.1986452 -0.7965282 1.3588241 1.7579405 -0.125355
Eb -1.8179251 0.3527924 2.3122516 0.91423845 0.4617544 -3.3575847 3.0757189 -1.0360591 1.8877798 2.6943345 -2.1393368 -2.1716347 1.1364028
G 0.053199198 -1.1241535 1.7695101 -2.790892 0.6648634 -3.5638294 1.846786 -3.0396616 0.39498433 -0.89557815 2.969991 0.65120405 1.7193635
E 0.006303754 -1.8979079 1.0740489 -0.42903972 -0.06994802 0.8217388 1.5950886 -2.1889286 2.0731337 4.8008494 2.2695394 1.4149127 1.1076077
Ab 0.22630696 -0.1745159 0.4521402 -1.7553843 0.22597937 -1.2749989 3.9550405 -0.36299667 1.3379105 2.2121067 -1.8713306 -4.299369 1.9573758
F -2.807034 1.3113492 2.098863 -0.49442062 0.34678385 -2.1729925 2.4167917 -0.9147673 -3.3787773 2.3361428 2.3800225 -1.2117317 0.541697
A 1.230866 -1.1746498 -0.2524649 -2.0830486 2.8880408 0.28467587 3.8202722 -1.3899505 0.6295403 3.2219744 1.8991245 2.0067804 1.154242
Gb -3.0805016 -0.30623847 -1.4123621 -2.5482945 -2.6393933 0.07209325 2.954336 -0.062127132 2.6898873 1.2911355 2.0481205 -1.1775578 1.4713709
Bb -2.198525 0.57557964 1.9075686 0.4816854 1.2270049 -4.1429634 0.91663593 0.95643747 -0.9805177 2.798156 0.09417306 -0.8582151 2.8357816
B -1.6453643 -2.443931 -0.3636643 -0.4575032 -2.9339015 1.6106617 3.1761243 -1.2542951 1.5071496 2.4231799 0.41726306 0.83368784 2.522833
C -1.7167073 -0.33083123 2.2619412 -2.7753892 0.49642533 -1.9753004 1.1002269 -4.3696346 -3.0108378 0.8603132 1.249026 -0.42252082 1.3738986
Db -2.2800221 -0.6105548 -2.4809518 -2.5002143 -0.1721313 -1.2743113 1.5251441 -1.3536777 1.6543965 2.2858455 0.47238714 -3.9799695 1.939434
D -0.1876844 -2.008589 -0.8146197 -0.4490586 2.6593812 -2.1127567 4.171244 -2.9989595 0.73980904 -0.033430744 2.5330975 1.1692587 0.7866911
F^7 1.5420986 2.8434343 0.02725813 1.3614295 -0.60452205 -0.68926126 0.1396984 -1.8059918 -3.0203412 0.51326996 0.8343864 -1.2894584 -1.8789662
Db^7 1.2698591 1.1064472 -2.9554412 -0.15649554 -1.0751958 0.49078578 -1.7717936 -1.399266 0.19487804 1.4190428 -1.3347907 -2.5990863 0.4882105
A^7 4.2585707 0.9522464 -1.4659005 -0.59200484 1.1373112 0.093568526 -0.9704813 -0.46161216 -0.098301224 1.4138243 1.0346531 1.8390765 0.47020182
Bb^7 1.6544099 2.496701 -1.1534601 1.3409255 0.37293816 -2.5040097 -0.5518135 1.4689652 -2.5081327 -0.21966046 -0.7132439 -1.4824127 1.1316012
Gb^7 0.6542069 2.174107 -3.4455514 0.37442186 -1.8849813 0.17978455 -0.28446102 0.8611865 1.6108216 0.62800103 1.6535821 -1.115616 -0.66341436
D^7 1.7082509 0.1909582 -3.495432 1.3632275 1.9435076 -1.00557 -0.21086411 -1.6247618 -0.7454244 -0.7308999 1.4316655 1.2552589 -0.17152634
B^7 1.9550103 -0.51255554 -3.4469972 0.9245921 -2.372653 0.6133067 0.22069143 0.27639967 1.9195536 -0.5562876 -0.54737145 1.382952 1.7710274
G^7 2.2620828 1.4681389 -0.9644362 0.13163981 -0.9177367 -2.5377057 -0.44362062 -0.7993399 -0.22358271 -2.689077 2.2690117 1.1382178 0.044799145
Eb^7 0.5445864 1.7203186 -1.03521 3.2959142 -0.9327222 -2.737394 -0.36752424 -0.89866775 0.77749497 -0.46308544 -2.0765321 -1.4610373 -0.27850628
C^7 2.1706336 0.6204594 -0.17377079 -0.15910886 -1.0395497 -1.0936145 -1.6631864 -3.0468347 -2.4390645 -1.4175221 -0.396674 0.14221704 0.7502046
Ab^7 3.2920535 2.1286001 -0.06637938 0.10811345 -2.0705593 -0.7533027 0.10798028 -0.20037273 1.3384999 0.1997203 -2.0484102 -2.097611 0.06712784
E^7 2.3002813 -0.12976867 -0.9074895 1.3972428 -1.2641221 0.42828602 -1.9321933 -2.3621192 2.417777 1.1849928 1.029454 1.7035049 -0.3770962
F- -1.8279657 0.07115438 2.6799989 -0.15115954 -1.6380271 -0.35931858 1.0809836 -2.2291076 -0.6764895 2.4116623 -0.53091556 -4.464168 0.5264987
C- -0.5946115 -1.0768174 3.5832934 -0.37268347 -1.2906313 -3.023005 0.78591335 -1.2099838 -0.20949315 -0.43521258 -0.9454643 -2.257963 3.006765
Gb- -0.6124756 -1.5907903 -2.0614524 -1.4485865 1.315793 0.74329823 1.1635461 -0.7734243 1.0002342 2.6835887 4.550944 -0.7337955 0.9243049
Db- 1.2890841 -2.9084697 -0.2533802 -1.8414243 0.12815082 0.9861817 0.11501334 -0.7732249 2.0387752 3.1780977 0.70965034 -1.1770524 3.3833108
G- -0.9442717 -0.67006284 1.9314909 1.8450449 0.8712902 -3.7165935 3.2363083 -0.37198436 -0.9819034 -0.9909968 1.8048631 -1.815826 1.2102507
D- -0.024178373 -1.3182248 1.3699545 0.72922623 3.0306609 -1.2593133 2.9540424 -1.335222 -3.8079913 1.2502747 0.8327476 -0.6059636 1.7089196
Ab- -0.13920149 -1.5870992 1.1544641 0.44629076 -1.4461775 -0.3294651 2.0479689 0.7647712 4.622574 2.1292343 0.48769206 -1.0438384 1.8359562
Eb- -3.5636914 -1.493054 -1.1266683 1.6977122 -0.7775003 -1.0344788 1.1849921 1.5255738 1.9815081 2.1408494 0.23497483 -1.9170873 2.7891202
A- 1.8732734 -0.94210124 3.5782707 -0.9101711 0.3602881 -0.13676514 2.1832395 -2.122835 -1.9907312 1.6356306 2.539213 0.7011162 0.82855535
E- -0.34670898 -3.2757852 1.4989275 0.31140435 -0.982368 -0.17863153 1.8532107 -3.4175508 -0.55010134 -0.28642425 2.975177 1.7430046 1.7678734
Bb- -1.857872 0.65377605 0.64070916 -0.88693434 -1.1019267 -0.20241994 1.2382581 2.1654325 -0.6600898 2.7774525 1.0259299 -3.972461 2.0821981
B- -0.47248033 -2.2707927 -1.0501637 -1.5565231 -0.06372459 -0.043990187 3.3693144 0.48421043 0.06570778 -0.34639254 3.868976 1.5366913 2.6793277
F6 -0.39290008 3.271667 -0.37021306 0.8696291 -2.6488004 -1.3169439 3.0395114 -0.8144614 -4.240524 0.57637763 0.39148864 -0.005466305 -0.7628137
Gb6 -0.9634703 2.710465 -3.4378755 -1.3878366 -2.5728402 -0.6958182 0.5177767 1.554281 2.4524612 2.1194882 1.1135912 1.3025174 0.49532515
G6 1.3320038 1.9314951 0.25614113 -0.9925704 -1.2687792 -3.412297 1.8902736 -1.4797918 -1.0468577 -2.533121 1.0316037 3.5618079 0.49239966
Ab6 2.1418176 2.6815937 0.09763863 -1.3034204 -2.2885385 -0.052251954 1.6239626 -0.018081611 0.9541433 2.8900254 -3.864626 -0.9086858 0.83107156
A6 2.2263396 1.1192647 -1.6708753 -0.91083235 1.7963284 -0.6847676 0.059451357 -0.1494595 -1.5222524 2.7211757 1.1361368 4.550763 1.5518214
Bb6 -1.0848898 2.5673633 -0.8791612 1.6356637 -1.6741832 -3.1809623 0.7923749 1.6771685 -2.729307 0.7639712 -2.3110778 0.18880168 2.3921406
B6 -0.15794699 -0.48635507 -3.045415 -0.25262004 -2.8211234 0.07308719 0.10436415 -0.6547594 1.9640871 1.1098922 -0.98039633 3.8968065 2.7088838
C6 0.23532706 1.319027 0.3255822 -0.6467069 -1.785322 -1.7338686 0.47585174 -3.9885328 -3.6045346 -0.7316499 -1.5513334 1.6719111 0.6930118
Db6 -1.2228314 2.1460977 -3.4387405 -1.5068915 -0.946185 0.2570765 -0.8611927 -1.2051697 0.71053016 3.8477159 -1.8431071 -1.1910667 0.49508628
D6 -0.49534118 0.9813794 -3.0548422 1.2983834 1.5073332 -2.0663896 1.765505 -1.8627814 -1.4194192 -0.21737127 1.6275351 3.9362073 -0.29511774
Eb6 -0.5975883 2.3390822 0.43592224 2.789663 -2.3426511 -2.4171853 1.1942291 -0.88273543 1.1301599 2.0423796 -3.533622 0.064985394 -0.006613758
E6 0.26845706 0.49547857 -0.24445024 0.5825558 -1.5935194 -0.6869666 -1.9991837 -1.6606132 0.992885 3.373422 1.9563481 4.304983 0.86477214
Db7b9 0.7491579 0.75775224 -1.9770653 0.5604112 -0.44581622 0.36766398 -2.886634 0.63458645 0.8807839 1.1177616 5.069732 1.2356268 0.47935447
D7b9 1.5139362 2.4540355 1.9647871 3.3757372 -1.8217689 -2.0453103 1.7451956 0.67372787 -1.5384822 -2.3246891 0.956259 -0.89255804 -0.60948664
Eb7b9 2.4472945 1.4971588 -0.4843427 0.28058454 -2.2411036 0.35995075 -1.2778451 2.7065432 4.4013557 1.2673167 0.6097134 0.12426838 1.3759441
E7b9 4.4833765 1.3195381 2.001982 0.6814658 -0.1761452 -0.25605547 0.22457466 -0.13864602 -3.1734023 -1.1314806 2.1586716 2.1172714 0.80736923
F7b9 1.5374893 2.1520681 -0.9478541 0.76152325 -2.6436357 1.3386611 -0.34396526 3.4286222 -0.7094698 1.5255271 -1.5587883 -2.992435 2.309865
Gb7b9 2.329893 -0.8701831 -2.5079508 -0.47506163 0.037146736 0.5540065 -0.67739266 0.9357367 -1.1519008 -1.8423924 2.4760392 3.2253644 3.2407768
G7b9 1.1143034 0.4636607 1.3789335 2.03973 -2.6449223 -1.2933686 -1.6218224 -0.454349 -2.200115 -1.1797156 -2.7946498 -1.7068348 2.908215
Ab7b9 1.4544123 -1.2945316 -2.9942322 -0.1914384 0.38174725 0.8962729 -3.6513588 -0.29201743 1.8143446 1.4062636 -0.3064467 0.9784478 3.3576405
A7b9 1.4343294 -0.15371576 -1.0738394 3.2443178 0.8292921 -0.24821645 1.2777303 -2.2091806 -4.46448 -1.7819235 -0.9353482 -0.27068186 0.72393125
Bb7b9 -1.800609 0.8304461 -2.3454113 3.2956018 -2.109619 0.0113643855 -3.2314603 0.47779936 2.6788287 1.7905822 -1.1781758 -1.6446513 1.2435114
B7b9 0.9500438 -0.5445924 -0.92605513 2.7133107 -0.9585985 0.9663777 -0.61324674 -3.3744197 -1.3974638 -1.5094582 3.1744292 2.9046044 -0.5983998
C7b9 -0.095579736 2.281786 0.9849465 3.177529 -3.526459 0.8354155 -0.3024389 -1.107658 -0.1919499 1.240624 -1.0443273 -3.4121087 -1.2698596
Bh7 4.085615 1.5199344 1.9243687 0.73508435 -0.29110545 0.23388135 1.2254137 -0.5886441 -3.6919653 -0.6580874 0.53937215 1.7333018 0.56278825
Gbh7 0.95744574 0.017500589 0.051842906 2.108487 -1.5790284 0.5014337 -0.73847127 -3.1943538 -1.882023 -1.7718548 2.9852948 2.5340025 -0.52245057
Ch7 0.61502725 2.1632552 -1.6269495 0.4100054 -2.425139 1.2437006 -1.3715649 3.276734 -0.30764 2.0247838 -0.9690332 -2.1762776 2.3545163
Gh7 0.047274962 2.3480644 0.44669017 1.8470693 -3.6581638 1.3149375 -0.5067412 -0.84752434 -0.2485987 1.7569386 -0.84916884 -3.1874282 -0.9079652
Dbh7 1.9484504 -0.7643298 -2.70381 -0.37598455 -0.4892915 0.6818992 0.04235481 0.003037387 -1.9576414 -2.4552515 2.2446015 2.9437299 2.6533606
Abh7 0.86709607 0.97455674 -2.0595446 0.5195155 0.6804473 0.14727065 -1.6439472 0.99018145 0.33295435 0.54636043 4.8040395 1.8582513 0.29815188
Dh7 0.85474205 0.57600605 1.0792919 1.7416364 -2.9083183 -0.75638 -1.0132749 -0.86193067 -1.1673694 -0.97231436 -3.481646 -2.159221 2.2833254
Ah7 1.1107402 2.0046787 1.2100922 2.9475636 -2.1906884 -2.04015 1.759809 1.1529021 -1.0386611 -2.6435006 0.073588274 -1.5084023 0.29416057
Ebh7 1.3487277 -1.0583915 -2.345355 -0.323772 0.5398391 0.8751944 -3.8187203 -0.7872556 1.0099621 1.6964355 0.54456997 1.2421569 2.7826066
Bbh7 2.5535069 0.91842604 -0.18054742 -0.19284077 -1.9712862 0.22006619 -1.9174552 2.104749 4.1062136 1.1693801 0.5299492 0.8746825 1.9832189
Eh7 0.6104608 0.55785036 -0.1854485 4.2158003 1.4861504 -1.0496943 0.27733532 -1.3469237 -4.126463 -0.7980925 -0.80951256 -0.0055448776 0.5589759
Fh7 -1.0602932 0.43259227 -3.0509636 3.6135018 -1.5869678 1.0569968 -1.0582589 1.057376 3.0204203 1.7432765 -1.0588129 -0.40706623 0.8526554
Gbo7 -1.3462373 2.8298132 0.27037832 1.4468687 -1.8012451 -1.496801 0.6388406 -1.9245307 -0.5942846 0.31079215 -1.0636252 -0.011533854 -1.6371825
Go7 -0.4478011 1.920215 -1.0282478 -0.80215853 -1.7550703 -0.45809966 -1.7064611 -1.3868142 2.3161995 1.6617196 1.851032 1.1645368 -0.97514945
Abo7 0.77804863 3.1766 -0.11873785 -0.18943693 -0.55790454 -1.6552851 2.2764597 -1.0415466 -1.3116856 -1.1440029 1.141499 0.6314531 -1.9072719
Ao7 1.2036006 3.0747354 -0.9040051 -0.71433556 -1.3883568 -0.45644847 1.4728898 1.1030388 2.350038 1.6146374 -0.7778754 0.2654978 -0.7416032
Bbo7 2.1056318 1.7383784 0.7944007 -0.6888469 0.2544434 -2.3456016 -0.46543735 0.5242369 -0.11250957 0.0051363013 1.4507264 3.3205066 0.9350717
Bo7 1.2097154 2.3329031 -0.4829174 -0.44540796 -1.4409994 -0.7409705 2.0066752 1.6251037 -1.0589359 0.38426653 -2.4019449 -0.5071106 1.2761769
Co7 1.5409616 0.63617367 -2.1467147 -1.910038 -0.65765 0.6549772 0.26783744 0.20367469 0.008816288 0.65941733 -0.41646925 3.1513646 1.8057753
Dbo7 -0.0729462 1.7715863 -0.8074251 -0.9974012 -0.5488485 -2.6063793 -1.1205565 -0.3652702 -2.3634775 -1.2011663 -1.5660948 0.22935711 2.0517178
Do7 0.4636534 -0.107286975 -3.549064 -0.76047486 -0.84562045 0.9628184 0.40960732 -1.2972114 0.9055855 0.67364556 -2.5630136 0.6186622 1.4854494
Ebo7 0.5905922 0.5800797 -1.3495258 0.30736655 1.3955925 -1.2109513 -0.048161045 -3.1254709 -1.9914681 -0.27789125 -1.485712 2.2282476 0.2889464
Eo7 -1.2925858 1.6103036 -1.7044983 1.3298627 -0.3207876 -1.3033552 -1.5641179 -1.175306 0.5210046 2.1744533 -2.3099592 -0.5137078 0.2744346
Fo7 -0.69093806 0.21663249 -1.9562923 1.8970456 -0.1084228 -0.030416515 0.12314198 -2.3194544 0.35871258 0.96112925 0.99642146 3.0644782 -0.8024517
C9 -2.4386153 2.175906 1.1026562 1.104396 -0.32393923 0.47726402 -0.1031402 0.8334571 -2.0171053 -1.2320783 0.13109772 2.045098 -0.11716117
G9 -1.9246346 1.6881055 -0.20978114 -1.0845332 0.2712753 1.312945 -0.7380323 -0.34006888 -2.7377772 -1.5969555 0.34738168 1.6588873 0.22109005
F9 -0.9077454 1.8715079 1.9565408 1.0419496 0.25289786 0.5867881 0.5639371 0.8749393 -0.9709391 -0.75442654 -2.1815424 1.8387046 0.30720866
D9 -0.5375707 1.9619135 0.15425757 -2.1395023 0.6084608 1.2673293 -0.8042614 -0.7777586 -1.0038036 -1.5980322 0.61501396 2.0783112 -0.4416947
Db9 -1.8024927 1.7653238 0.053683486 -1.0415205 -2.4858844 2.2117116 -0.5812293 0.3206674 1.1713537 -0.71172065 -1.1291223 0.8683241 0.10671985
Ab9 -2.2354019 2.0692782 -1.2282511 -1.0824225 -0.8060133 1.1859819 -0.04396658 0.24538714 0.67317164 -1.4732298 -2.098641 -0.36198676 0.04936859
Gb9 -0.9876257 0.9067288 0.07108259 -0.46926948 -1.1666584 3.504618 -0.873386 0.37559608 0.37891877 1.1803505 -1.159583 1.7883121 0.58670425
Eb9 -0.9459093 2.4390545 -0.78442395 -0.6726508 0.6760888 1.4979022 1.5426652 0.99654156 -0.26328003 -1.06657 -2.5164394 -0.80341506 -0.40808353
A9 -0.34150732 0.93398166 -0.2874594 -0.97875434 1.3493401 1.1606116 -0.2338174 -1.3017603 0.94478273 -1.8912908 -0.5460084 2.8728905 -0.41871637
E9 -0.31489453 1.3479192 -0.6952913 0.07555748 1.8715848 1.6763703 0.6518472 0.9270291 1.278921 -0.18379141 -0.36303365 3.2163117 -0.38619593
Bb9 -0.383298 1.9588039 1.0150195 0.5969037 0.9275873 1.547362 1.4631976 -0.22304726 -0.40890718 -0.18474747 -3.10807 0.36949456 -0.7697106
B9 -0.9516708 1.2205801 -0.2744998 0.5301848 0.6071297 3.3681293 -0.13401677 0.58426 0.4987093 1.630685 -0.19228575 2.481887 -0.53911126
Eo -1.4732713 -1.0428731 -0.08741701 0.5078663 0.6280296 -1.7650721 0.5443633 -1.5692022 1.0785047 4.169016 -0.33042815 -1.1159443 1.3436774
Gbo -3.3014429 0.48415062 1.1826475 -0.120583095 -1.4147953 -1.4432628 2.5501158 -1.4947673 -0.09609699 1.6870723 0.7394394 -0.67718226 -0.12059992
Fo -1.8942206 -1.6617941 -0.0032079434 1.4048157 0.22053114 -0.765927 2.29711 -1.488054 -0.66443247 2.841388 2.274734 1.0162045 0.8336267
Go -1.4725194 -0.65320987 0.2175551 -2.185385 -1.525726 -1.5202261 0.15542498 -1.8636047 2.1614478 1.9230503 3.0751116 -0.22176693 0.8687238
Abo 0.1868045 0.5061448 0.750112 -1.7468157 -0.082847826 -2.1831353 3.7239146 -1.6558319 -0.5693502 0.1613773 1.839754 -1.9423475 -0.27522534
Ao -0.30902916 0.46611544 0.05476635 -1.7759085 0.44906467 -0.9650851 3.7079384 0.22913593 2.062893 2.310129 0.27880293 -0.7377088 0.33840397
Bbo 0.63419664 -0.6040079 1.8058726 -1.1326603 1.0200155 -2.6980853 1.6546302 0.06956418 0.6504785 2.3371658 1.7198606 1.5523224 1.9604689
Bo -0.49282694 -0.47704712 1.4901834 -0.33636463 -1.4347217 -1.1284227 3.1142387 1.1050382 -1.0219349 2.7391024 -0.47055095 -0.5777533 2.6345007
Co -1.1173308 -0.8559971 0.20741683 -3.1507592 -0.8098337 0.41952112 2.1739864 -0.87868017 -0.9697771 2.1900866 0.80910426 1.5554885 2.1612287
Dbo -1.7920364 -0.56574845 -0.18062799 -2.4180176 -0.38619542 -2.7309952 0.23495944 -0.9201123 -1.3173518 0.8786476 0.8379556 -1.2231138 2.8203223
Do -0.7731828 -2.2765973 -2.0421145 -1.3073425 -0.115867056 -0.7635307 2.853649 -1.7145817 0.7167411 0.50946206 -0.3111032 -1.2824459 2.243151
Ebo -0.6040638 -1.2195873 0.35062543 -0.6078749 1.5800428 -1.7473762 2.6531057 -3.1071966 -0.33245406 1.108748 -0.99907637 0.27202708 0.91604453
Eb-6 -2.6719382 1.060286 -0.9008746 2.3166485 -0.6282993 -1.2830019 -1.1476985 1.9132233 -0.668898 0.09402044 -1.4654197 -0.87433374 2.0661924
E-6 -0.6794916 -1.6017864 -1.0088058 0.9183385 -2.0817995 1.183432 -0.71928954 -1.4190732 1.4375888 -1.3029914 0.9049464 2.4149675 1.4636456
F-6 -0.044739135 0.34266993 1.2935897 0.5004658 -1.9503967 1.3064327 1.3623115 -3.1037018 -2.1644633 -0.78916454 -1.4389517 -1.1755598 -0.4070431
Gb-6 -0.8439898 1.1299748 -2.3628874 0.06622482 1.3871863 1.7088554 -1.0668335 0.5268833 0.9050248 3.1207693 1.2523173 -1.0866413 -0.38736388
G-6 -0.41904572 0.2341892 0.2620825 3.3483422 1.2137504 -1.8704352 1.4577914 0.5873731 -0.5254322 -1.7413553 1.8977406 2.0161076 0.11399023
Ab-6 -0.1803817 1.6555301 2.113859 1.9684198 -1.7050319 -0.76775163 -0.21876706 1.440764 3.0954247 1.1777307 -1.4111 0.17012045 0.35564545
A-6 1.7063074 0.4727731 2.399392 -0.24294022 -1.2271053 1.4081872 -1.3830392 -0.61011505 -0.3261314 0.99743104 2.2279606 2.708202 0.44430673
Bb-6 -0.23012935 2.8690176 1.0288901 -0.39106494 -1.033157 0.5692533 0.4337653 1.7561133 -2.929956 0.68977916 0.5380838 -1.9466063 0.20467985
B-6 -0.11042788 0.66724783 -3.0418446 -0.48668063 -0.87933767 1.7016675 1.4501363 2.642621 0.7966768 -0.44871238 1.8750644 1.0933751 1.1711887
C-6 1.2273998 0.03543797 2.365248 0.115922324 -0.95912784 -1.5855534 0.7073337 -0.45291308 -0.551401 -2.8988152 -1.116433 1.4337738 1.9114448
Db-6 1.5265503 0.2350629 0.8128441 -0.97560865 0.026247151 0.96287686 -1.8143418 0.3823884 1.4628835 2.7183814 -2.728416 -0.8116592 2.41041
D-6 1.2574052 -0.643141 -0.037556637 1.6403474 2.2486732 0.8301913 0.5009467 -0.023903921 -2.6333628 1.2689095 -0.0107156 2.4130223 1.527731
F7sus -0.96041286 3.1199164 0.3443731 0.4218065 1.2974292 -1.4026169 -1.5873965 1.7833672 -0.8385237 -0.9435994 -1.7798817 -1.0171523 0.8880011
Gb7sus 0.034735914 -0.33855826 -1.7721407 -0.87181103 -0.47695866 1.4515959 -0.3987294 -0.9923437 2.9106545 -1.9843272 -0.75942767 2.2319582 1.0733275
G7sus 0.53712225 1.8461037 1.5320892 -0.67039806 0.86579204 -0.49204648 -1.5957086 -3.3272986 -1.4949965 -2.0334613 -1.9105766 0.10551791 -0.28940332
Ab7sus -0.5280802 1.9500101 -1.9449451 -1.6718903 0.89840347 0.6393154 -2.0458605 -1.2264591 2.336241 0.34723273 -1.1050491 -1.5580723 -0.28695536
A7sus 0.14096384 1.2544291 -1.2699361 0.7797768 3.3395162 -0.20617357 0.44328758 -1.8345832 0.02673414 -1.7890157 0.680273 1.7241023 -1.3818768
Bb7sus -0.9827253 2.5488555 0.7711626 1.6611916 0.21867956 -1.0368477 -0.48697767 -0.41820318 2.4848652 -0.6035437 -2.3687031 -0.5378216 -0.93452543
B7sus 0.6800871 0.7695748 0.8063105 -0.46284068 0.25584507 1.7693441 -1.8002605 -2.458507 2.313351 0.11202778 1.1373123 2.543336 -1.0529318
C7sus -0.72741085 3.7543335 1.3531592 -0.04648802 0.64723617 -0.018205797 0.041137923 -0.6966044 -1.6477685 -0.670304 0.00782392 -1.1993785 -1.9353968
Db7sus -0.4759719 2.150025 -2.4033992 -1.4319452 0.04716438 0.9760816 -0.32188743 0.50748265 3.2465405 -1.1759995 1.1930674 -0.09201421 -0.80053514
D7sus 0.92031133 2.049784 1.1164489 -0.4780281 1.138611 -1.6490064 -0.34960374 -1.0743501 0.48010138 -3.580307 0.2833949 1.4811625 -0.37028965
Eb7sus 1.706844 2.1140249 0.29705682 -1.3161336 0.09748193 0.7648446 0.16497342 -0.042814866 2.3906484 -0.57906705 -2.735137 -1.2739792 0.06201012
E7sus 2.5375836 1.2425158 0.0319946 -0.92059183 3.1938713 1.0443726 -0.51149535 -0.6663585 0.39031163 -0.017319662 0.03650941 2.5577676 -0.058089856
E7#9 3.6110468 0.9273549 1.5087372 0.6664421 0.9879758 1.0348333 -0.61606044 -0.24134505 -1.3572937 -1.3864955 1.5467291 -0.06572127 -0.15896645
B7#9 1.9621605 -0.8746226 -0.7689886 1.9788541 0.03389476 2.4452012 0.30256715 -2.0166144 -0.41920638 -1.8334899 1.8192594 0.51387846 -0.6647571
F7#9 1.7334229 0.64001906 -1.0281414 1.62287 -0.67168397 2.4780416 1.0143771 2.28082 -0.4220861 0.072777875 -0.3882439 -2.6807775 0.81575423
C7#9 0.777583 0.6122629 0.21420076 3.0156147 -1.1506349 2.3906 0.27383226 -0.5495719 -0.46258003 -0.02163288 -0.9625505 -2.9822536 -0.71144205
Gb7#9 2.8573291 -0.77339536 -1.0482109 1.0423117 0.40792626 2.1758156 0.1965914 0.98472583 -0.4582702 -1.5580527 1.6058413 0.99461925 1.294443
Db7#9 1.6773348 -0.01805493 -1.2552336 1.6027964 0.1405491 2.5676427 -1.5192959 0.44033405 0.69186157 0.4942893 3.047208 -0.25293735 -0.2114668
G7#9 1.5729179 0.3092676 1.0027753 1.7440573 -0.6279733 0.098171204 -2.038612 0.4179379 -1.3129113 -1.7502326 -1.069793 -2.4092355 1.8189049
D7#9 1.23218 1.481152 0.4293713 2.627694 -0.23995319 -0.24403043 0.48175162 0.597072 -0.8344238 -2.4887767 1.1060638 -1.9443575 -0.6862299
Ab7#9 2.3986878 -0.9971221 -1.849355 0.5939302 0.21034643 3.1455896 -1.6626422 -0.44864684 0.75953376 0.088268735 -0.1263555 -0.59119606 1.3219748
Eb7#9 2.3419728 0.54387116 -0.3450414 1.1787927 -1.3718234 2.357718 -0.024272906 1.0967866 3.2634337 -0.7444823 0.5354304 -0.76902777 -0.18018655
A7#9 1.67245 0.353889 -0.90827113 1.4920883 2.0253322 0.8693221 -0.108965784 -1.017383 -3.1535716 -1.8487138 -0.16725653 -1.6344386 0.34497777
Bb7#9 -0.22774975 -0.13277057 -2.5057492 2.6586196 -0.5984334 1.9346273 -0.44257975 0.58044 1.3610448 -0.68160784 -0.5798509 -2.2134123 0.3879981
Gb-11 -1.936058 -0.24375619 1.6371382 -0.8339162 2.8503327 1.5939074 -1.7632477 -1.5276353 2.1204293 -0.45803046 1.8733165 1.3660556 0.29380667
A-11 -0.74198073 0.81998354 3.4761267 -0.7657104 2.2301297 0.55139655 0.8342392 -0.8061297 0.2597483 -3.4538488 0.5798661 0.36265388 0.19908051
G-11 -2.4085867 1.6023395 2.42243 0.035631143 2.058419 0.9701014 1.4032686 -0.19836886 -0.35248742 -2.048458 -0.25793982 -2.2595596 -0.60348046
Bb-11 -1.5615041 1.2523916 1.7325634 -1.5798607 1.3861111 2.0813673 -0.041972563 0.7321988 2.576159 -0.41466814 -1.5409923 -1.9265828 0.6578824
Ab-11 -2.1429014 0.7615245 0.303209 -1.3169789 1.9865638 1.2582978 -0.51899433 0.6165418 4.026573 -0.5458243 0.6719768 0.11321384 0.4339141
B-11 -0.44037482 -0.2732185 1.7663788 -1.740438 3.469207 1.765986 -0.21971188 0.12390394 0.5787627 -1.7931623 1.5915078 1.5633345 1.4440883
C-11 -2.633261 1.2638046 1.8825643 -0.34351298 1.7134514 0.070687756 -0.092262946 1.2313718 0.7969268 -2.1983213 -1.6824677 -1.8442695 1.5720778
Db-11 -1.4057068 -1.2007596 0.60372955 -1.3450087 2.139964 1.9756794 -0.5458003 -0.44502234 3.128696 -1.5512661 -0.26237383 1.5453011 2.027565
D-11 -1.529859 0.5915929 2.8807244 -0.31172112 2.9574473 0.49402693 -0.8086391 -1.4790021 -0.86766136 -2.1793995 -1.0261691 -0.90037555 0.83964247
Eb-11 -2.351196 -0.004278385 -0.11541625 -0.5357756 2.5707695 2.356251 -0.6986458 -0.082011975 2.7848945 0.048591863 -1.3187544 -1.1229296 0.9735287
E-11 -2.6740305 -0.34794176 1.1467404 0.3311803 3.5388525 0.23359059 -0.5757003 -1.1244358 0.13429907 -2.739554 1.0481939 1.0222943 0.95444965
F-11 -2.725276 0.63186735 2.0064847 0.80671346 1.0743443 1.6501954 0.49685007 -0.97224134 2.339241 -1.1614412 -2.0248008 -1.7883154 -0.15897916
F-9 -1.1102493 1.1785203 2.1226707 2.8292289 0.9865256 2.8319685 -0.5828649 0.1784265 0.6943495 -0.55503654 -2.34639 -1.1744163 -0.38754782
Gb-9 -1.301023 0.22219896 0.7077043 0.6793473 1.0863206 4.1695194 -2.3836403 0.07811543 0.7293867 0.20943497 1.9645464 1.1762216 0.096027
G-9 -2.394794 1.8223116 1.5845219 1.1537292 0.21246175 2.1964731 0.3642451 0.51916754 -1.8081645 -2.9500413 1.0473938 -1.4330597 -0.6927084
Ab-9 -1.1999059 1.7532604 0.25923914 -0.90864366 -0.6434327 3.260588 -1.5927546 1.1908491 2.7097163 -1.7592971 0.85547876 -0.7624686 -0.15935645
A-9 0.71086323 1.7104019 1.3471303 -1.4803995 1.687225 2.2852433 0.24533434 -0.2798699 -1.0873747 -3.981275 1.2472516 0.2952506 -0.43961716
Bb-9 0.7172173 2.0391417 0.7315554 -0.01761889 1.5401927 3.744817 0.63734627 1.8794274 0.8707659 -0.5036019 -1.6694744 -2.1098375 -0.13089791
B-9 0.2034316 0.27774188 1.0774238 0.5756119 3.0488913 2.6408312 -1.0276284 1.9893128 0.33447322 -1.24706 1.2512009 2.371301 1.3149823
C-9 -1.218589 0.9812533 2.255626 1.3353627 0.5016338 1.8957323 -0.6555684 2.215662 -0.94709045 -2.5026226 -1.6324692 -1.2084664 1.8788419
Db-9 -0.55102754 -0.3777041 -0.18340853 -1.1712594 -0.25384524 4.7261 -1.6188697 0.4975285 1.3690748 -1.4414741 -0.30351973 0.99782586 1.791671
D-9 -1.1066478 1.0567166 0.71522796 -0.45696807 1.8563457 1.9959695 -2.0747366 -0.94627744 -2.9684567 -3.0119894 0.083620206 -0.69398844 0.80914086
Eb-9 -1.5584332 1.0538815 -1.8292396 0.11613693 1.5921903 3.452095 -0.9979332 0.31958035 1.3196422 -1.164178 -1.6562046 -1.8405956 0.2543856
E-9 -0.43597302 0.07969808 0.35785362 1.4808061 3.3750257 2.3939898 -0.5852473 -0.9807946 -0.043562967 -2.7925172 0.53783 1.9045961 -0.2044479
G7#5 0.40285465 1.3298815 0.54751533 0.36961833 -1.6152623 -0.35449007 -1.3219895 -0.870523 -1.8628721 -2.4219027 -2.003381 -0.73965675 1.1780756
Ab7#5 1.1040405 0.4016226 -2.2253466 -0.7495375 -0.05764275 2.275679 -2.190152 -0.87296265 1.2752368 0.6618506 -1.1534693 0.16505083 0.78093344
A7#5 0.60704756 1.0996013 -1.1484166 1.5178186 2.2935462 -0.2308671 -0.4097575 -1.2574978 -2.3012822 -1.6712481 -0.4228126 0.95503837 -0.24710996
Bb7#5 -0.66014564 1.6682503 -1.2838438 2.52405 -0.12151275 0.19697015 -1.4573323 0.7170562 1.7206328 0.6524511 -2.2221422 -0.22144254 0.07861492
B7#5 0.56304795 -0.13476263 0.17283113 2.1496334 -0.24435803 1.1268662 -1.5197937 -1.6595857 0.10065314 -0.7297116 1.1125885 3.2678668 -0.057421822
C7#5 -0.497154 2.5424218 0.3901439 1.5433681 -1.9115969 1.011719 -0.28568223 -0.75565344 -1.4379025 -0.23318802 -1.0311521 -1.354957 -1.2122587
Db7#5 0.3672868 1.69173 -2.2515135 -0.507362 -0.6701913 2.2338223 -1.5108018 0.19894765 0.9622558 0.21731453 2.4233384 0.7882998 -0.7690282
D7#5 0.48793402 2.4643385 0.3935158 0.9767755 -0.17841642 -1.5844442 0.035557672 0.20968601 -0.958906 -3.0121956 0.6230695 -0.01995905 -0.5791889
Eb7#5 1.8502489 1.979823 -0.6135638 0.10145577 -0.84616524 1.2452614 -0.3325003 1.0482942 2.9361486 0.09859411 -1.4449227 -0.22567782 -0.20790644
E7#5 2.6677997 1.7129531 1.3175566 0.26829758 1.4075245 0.42907378 -0.9433587 0.0077301706 -1.3679996 -0.46798787 0.85409665 2.4699433 -0.02108497
F7#5 0.14460519 2.5788016 -0.8372439 0.8993748 -0.6263179 0.7157965 -0.38347554 2.5985272 -1.0102153 0.21161482 -1.6775739 -1.2983857 0.9708906
Gb7#5 0.82962406 0.11093829 -2.101865 0.11610877 -0.84235376 1.9111823 -0.2685529 0.5790677 0.12028148 -1.359313 0.78837353 2.8763947 1.1778592
Bb13 -0.17009503 2.050121 0.86263496 2.6710522 1.1784222 1.4125075 -0.76979053 0.011457764 0.23982254 -0.3350025 -2.8654613 0.85900664 -0.756408
Eb13 1.0673107 3.1418836 0.04146996 -0.4156634 0.67297834 1.7807564 -0.0072649075 1.2807539 0.70445514 -1.4294813 -2.0439458 -0.37489828 -0.61210394
B13 -0.6082178 1.3823042 0.39399588 1.9738545 0.3769999 3.139942 -2.4242494 0.20507559 0.21981706 0.85198355 -0.043320406 2.1186106 -0.39349812
E13 1.3848562 1.9878095 -0.02427562 0.49292666 1.9236397 2.3574753 -0.42745438 1.9255462 0.44115442 -0.3695055 -0.100759424 2.5347905 -0.058641575
C13 -1.435895 2.2759624 0.8381408 1.841509 -0.65822375 2.2658286 -0.6330905 0.33392346 -1.967699 -1.5345831 0.40521428 1.0822563 -0.84956944
F13 -0.2900006 1.9692417 1.3656505 1.7699039 0.078305945 1.583862 -0.64044946 2.2044277 -1.3609544 -1.2097387 -1.5418142 1.3629061 0.92186564
Db13 -1.4942862 2.7594044 -0.3163322 -0.47813463 -1.7896016 2.2384865 -1.966015 0.9503029 0.8307215 -1.3462831 0.33693358 0.30271128 -0.42744005
Gb13 -0.72739935 1.0550117 -0.22965522 -0.03840331 -1.2675116 3.2302787 -1.9229428 1.2277666 0.28874102 -0.9569305 -0.9149855 1.7854898 1.3252617
D13 0.424247 2.77718 0.09568421 -1.0223955 0.23532553 1.1859298 -0.9395256 0.07577771 -0.08594256 -3.4408286 0.8292635 1.1930877 -0.8825362
G13 -0.7711867 1.4942437 -0.23603615 -0.5421441 -0.69993484 2.2275813 -1.8390414 -0.39133114 -2.3133626 -2.7379165 -0.34520775 0.99519837 0.76082075
Ab13 -1.0973687 2.36591 -1.6655741 -0.7581849 0.4147603 1.5996362 -2.2995133 -0.0017068826 0.082263716 -1.6783029 -1.9379457 -0.6487752 0.24172738
A13 0.058437888 1.2206968 -1.7097174 0.9584399 2.1701403 1.7657592 -0.55438954 -0.8145783 0.26176438 -2.0584047 -1.1156121 2.1472716 -0.5362691
E7#11 1.762298 1.64072 -2.516134 2.4036546 -0.6522345 -0.13283339 -0.03562856 1.6751019 1.0746089 -0.8114014 -0.45428088 0.06055363 0.13278832
F7#11 2.8604121 0.9158685 -0.23604146 1.8287627 -1.643975 -0.11215935 -1.3943754 -0.64242 -0.07008907 -1.558338 -0.09103383 1.7352068 0.4200371
Gb7#11 2.4697692 1.4505931 -0.7783991 1.2278962 -1.957661 1.2475419 -1.64819 -0.16303371 -1.4478424 0.44524035 -0.5664022 -1.1762058 0.33807632
G7#11 2.0518343 0.95255995 -2.919191 1.6466233 -0.21797796 1.3333797 -1.0306246 0.61691123 -1.1647118 0.3012359 1.0202206 0.29277098 0.24073644
Ab7#11 0.72750944 1.4109359 -1.5184375 2.2869785 -0.5078019 -1.9795233 -2.1108892 0.50412273 -0.60225165 -1.8155135 0.11253157 -0.24420963 0.8920572
A7#11 2.459221 0.36790645 -1.3900294 1.5215034 -1.5508089 0.2697331 -1.3206317 -0.9258574 1.6949857 -1.208917 -1.1437106 0.5204639 0.46484953
Bb7#11 2.8533828 1.6934155 -0.219502 1.5700159 0.2427696 0.47380462 -1.9165038 -1.7234107 -1.453221 0.271534 -0.5702901 0.615496 -0.70446455
B7#11 1.2529815 2.0368123 -2.372273 2.295045 -0.24946482 1.1068488 -1.0211138 0.73537314 -0.8388422 1.336619 0.01853889 -0.8260595 -0.601399
C7#11 0.9191428 0.8402322 -2.074059 2.634414 -1.0744277 0.01664293 -1.0937155 0.38835964 -0.42318454 -1.2469997 1.4643956 1.2711546 0.10248704
Db7#11 1.6442505 1.3946868 -0.10549772 2.099121 -2.7878914 -0.28749654 -1.8364651 -0.5479272 0.038852576 -1.3565392 -0.652939 -0.51781625 0.20186752
D7#11 2.7243855 1.1298395 -0.5015017 0.63553524 -1.0913432 0.7717921 -2.8509169 -0.78238827 0.24627694 0.6355225 0.6292758 -0.11709024 0.031929154
Eb7#11 1.8621362 2.403488 -1.7144263 1.5410434 0.55772877 -0.4859457 -1.0926883 0.48438525 -1.8881828 -0.59917724 0.6728608 -0.8311298 -0.49557906
C^7#11 1.7655894 -1.4264259 0.172228 0.27884477 1.2004173 1.2719198 -0.3424178 -1.026661 1.6778104 -3.3303018 1.4483031 -0.43041748 0.95632017
G^7#11 0.90519595 -1.066018 -0.7553527 0.9783469 1.9844369 0.91649383 -0.39056447 0.26113307 2.4363973 -2.1454875 2.5117226 -0.96552896 0.5687849
Db^7#11 1.1900736 1.0163696 1.6801184 0.27941817 1.8024445 -0.36757952 -1.9475178 -1.069059 0.5859673 -1.2190703 -0.29822627 -3.6442904 0.1074428
Ab^7#11 0.9347812 0.89607686 2.058236 1.4274893 2.1831648 -1.2863249 -1.1637661 -0.866743 1.043299 -1.9544302 0.12195205 -2.4518454 -0.18613762
D^7#11 1.3882264 -1.1232655 -0.8741892 0.26393268 2.9785218 1.638622 -1.033284 -0.0665534 2.0402246 -0.6757174 1.0720301 -1.3340236 0.9600656
A^7#11 1.6834604 -0.66457546 0.73337835 0.21139921 1.0890023 1.573315 -1.1740562 -0.35674655 3.692891 -0.58600694 0.65377843 -1.6481489 0.47390985
Eb^7#11 0.49534163 0.17547807 0.56689495 1.7243251 3.42956 -0.33866864 -0.47825244 -0.11615775 -0.23808002 -1.7541004 1.0208111 -2.3081796 0.12732585
Bb^7#11 1.886473 0.38874528 1.8267845 0.6103436 2.7793956 0.9662354 -0.7381121 -0.6214509 -0.9165018 -0.97841823 1.8578297 -1.8528517 -0.24341898
E^7#11 -0.29603484 -0.5881838 -0.2460313 1.1167126 -0.06273423 0.7834468 -1.257396 -0.2838496 3.529661 -1.9631549 0.4257171 -2.2619169 0.6591482
B^7#11 -0.5020445 0.915287 -0.5337139 0.16953258 1.1833769 0.10809947 -1.176406 1.660582 1.9369684 -1.6051561 0.5617286 -3.4254992 0.9091306
F^7#11 1.6161863 -1.0808465 1.582803 0.49957126 1.2359918 1.5300934 -1.2430897 -2.4226787 0.14380717 -2.0208404 1.957376 -1.3398818 0.09480621
Gb^7#11 0.040011153 1.5122333 0.4270488 0.24589072 1.8243536 0.5060993 -1.5436392 -0.6119418 0.86219865 -0.3419243 0.66153985 -4.041282 -0.85295284
G+ -1.8946444 0.38893497 2.5647547 -2.5258703 0.37209702 -2.141754 0.5528537 -2.282043 -1.4217693 -0.7567387 0.34401032 0.8885194 1.4097359
Ab+ -0.94569 -0.5213229 -0.9616581 -2.5118136 -0.15102439 0.7989987 1.3040667 -0.84797204 1.307134 1.7400233 -0.985107 -2.7013218 1.5625818
A+ -0.79998726 -0.91053814 -0.30905914 -0.9002719 3.2896152 -0.58533025 2.8739538 -1.6733801 -0.3807755 0.43117023 1.3650097 2.3209271 0.64418143
Bb+ -2.795155 0.42755094 0.975656 0.9178677 0.16432866 -2.5244575 2.1361284 0.5236428 0.9823119 1.5117028 -2.2649848 -1.2039298 1.8223894
B+ -1.076358 -2.1854486 1.0738544 0.24843669 -0.5902244 1.0534972 0.9252483 -1.3843 1.773203 2.4232004 1.2600946 2.4998744 1.6661515
C+ -3.0006485 1.1743096 2.3193972 -1.0737582 0.08552483 -0.9566339 2.2636025 -1.4079715 -2.7526507 0.87254864 -0.010735146 -0.34453502 0.3258562
Db+ -2.905357 0.14977404 -0.9671891 -3.1023815 -0.8825561 0.9282365 1.0827783 -0.06005322 2.4249399 2.1390624 1.0193971 -0.65826356 1.2243857
D+ -1.5007918 -0.37372532 1.2475017 -1.3168985 1.8498616 -2.6614027 1.6370753 -1.8385422 -0.039445043 -1.3084415 2.2892253 1.9142898 0.8589195
Eb+ -1.0102764 0.29006824 1.0921124 -0.59449047 -0.74736685 -0.2530767 3.5470195 -0.103017 1.7669208 1.157688 -2.7103245 -2.315643 1.1128644
E+ -0.085365266 -0.87860835 1.5653517 -1.5707076 2.1275885 0.6859257 1.2147149 -1.2028027 0.7282688 2.9638968 1.7364529 2.8574731 1.0180393
F+ -2.748954 1.0628136 1.8407055 0.1435315 0.122338615 -2.0091488 2.266778 1.494981 -2.0305455 1.2973094 -0.2902511 -1.0534655 2.043919
Gb+ -2.165327 -1.04465 -0.6890445 -1.0847498 -1.4483564 2.0095499 2.7495372 0.3290349 1.7312113 1.601803 0.58841395 1.6381893 1.6930618
Bb7b13 -1.4880015 1.0047321 -2.3475425 1.8952427 -0.8554251 0.8664256 -1.8574536 1.3780354 2.0097928 1.2084683 -1.2063559 -1.0798513 1.2265246
Ab7b13 1.026493 -0.83070767 -1.9127274 -0.68375576 0.53135234 1.3525506 -2.7292838 0.024971373 2.1095257 0.59726024 -0.15415944 1.3663231 2.5893729
B7b13 0.7056016 -0.7539725 -0.65601265 1.8051198 -0.22996636 1.3350127 -0.013117376 -2.4148183 -1.1828866 -2.1536715 2.344617 2.1736212 -0.13066533
A7b13 0.9241228 0.7079879 0.37281245 2.1363778 1.5600517 -0.013207175 0.4987235 -1.1734204 -4.1054277 -1.4428767 -0.798769 0.14472719 0.5532351
C7b13 -0.031169055 1.4994457 1.1386774 2.1410775 -2.0478704 1.4242296 -0.34636375 -0.76464415 -0.06932705 0.775695 -1.8034388 -2.8082807 -0.4179542
Db7b13 0.5041107 0.31596786 -1.4433488 0.55143064 0.7523034 1.2643658 -2.5960495 0.23658761 0.5694121 0.82713056 3.761714 1.2542185 0.45723894
D7b13 0.08285176 2.067524 1.3801253 2.7040987 -0.25798953 -1.5041614 1.0691451 0.50448096 -1.60029 -2.154093 0.6135913 -1.2029792 -0.50569844
Eb7b13 0.8418575 1.2985463 -0.6521033 0.13235985 -1.4834049 1.0469021 -1.0918163 1.8762155 4.032379 0.45158562 0.20112349 0.64695936 0.821116
E7b13 2.9170606 1.3502071 2.025122 0.18985173 -0.18227132 0.31039286 0.14989005 -0.8664391 -2.5597987 -1.5602764 1.7941918 1.5359521 0.0478906
F7b13 0.6059658 1.9464742 -0.6479086 0.37032965 -1.3059134 1.9457884 0.1247782 2.5750027 0.052620973 1.2061744 -1.1422232 -2.7053306 1.1074522
Gb7b13 1.9034106 -0.38579527 -1.7342672 0.15346868 0.545478 1.1484642 0.12320105 0.8902763 -0.9084914 -1.4917885 2.602695 2.7573347 1.7331754
G7b13 0.40503266 0.8234751 1.976966 1.9490353 -1.7457174 -0.84425616 -1.0158671 0.4543839 -1.2071595 -1.5884787 -2.2899203 -1.8265156 2.1269603
C^9 -0.15602216 1.0615972 1.5670874 -0.68530566 1.0109313 1.7508178 -2.1807637 -1.0281547 -1.2511423 -3.0662103 0.013651919 0.81720257 0.45901784
Db^9 -0.5863385 1.4637141 -0.8266086 -0.42385775 1.6689299 2.3603098 -1.3351885 0.39992857 0.38367027 -1.4662703 -1.7225472 -2.288063 0.37615758
D^9 -0.039943494 0.22760993 -1.0585194 0.7850758 3.3928375 1.9625986 -0.7484253 -0.35896894 1.1349648 -2.356919 0.23717138 1.6787864 -0.052025337
Eb^9 -0.984392 1.4635932 1.6370736 2.060113 1.7091371 0.5090292 -1.2948536 -0.04737792 0.58325976 -2.0789053 -2.2472768 -0.71539366 -0.049184643
E^9 -0.74767697 0.20697047 0.39120165 0.55300874 0.7869772 3.732551 -2.2487688 -0.66533536 1.8625978 -0.37536156 -0.06349002 0.8491567 -0.07249625
F^9 -1.118064 2.0093756 1.0868708 1.1266493 1.1565334 2.210091 -0.30460313 -0.46159735 -1.74385 -2.1067133 0.4954558 -0.2395231 -1.3327476
Gb^9 -1.792918 2.3343208 -0.41078842 -0.24671286 0.28789595 2.3980935 -1.3135684 1.1485944 2.1194692 -1.2195306 0.12581308 -1.2634768 -0.68499446
G^9 -0.20119411 1.0192106 0.5446814 -0.5353975 1.3453686 1.4212682 -1.2715499 -0.45752648 0.5477996 -3.638584 1.7042712 1.048223 -0.23546258
Ab^9 0.37009257 2.2877219 1.4916914 0.18909666 0.9199148 2.0975132 0.57643026 0.4479421 1.1068729 -2.077997 -2.0236912 -1.8421857 -0.8244933
A^9 0.7161199 0.9550229 0.46357906 -0.82453454 2.6527677 3.015265 -1.5045215 0.8497158 1.3370438 -0.7465437 1.0162034 1.3128268 0.23540322
Bb^9 -0.7720994 2.0285919 1.5413414 1.1467872 2.0510309 0.8202938 -0.76211876 2.0666602 -1.1585923 -2.522869 -0.4622105 -0.3152516 0.4688042
B^9 -0.71512955 0.10427652 -0.47037497 0.27613428 0.105357036 3.580661 -0.0048999526 1.2112563 2.2958963 -1.9808444 -1.0357091 0.56509644 0.8982287
Eb9sus 1.8678678 1.1468614 1.913902 -0.6276215 0.44636896 1.9414771 0.83321214 0.98787314 1.5674157 -0.9218101 -1.929981 -1.9662035 0.40411055
Ab9sus -1.1202098 0.39596677 -1.7644618 -0.18008597 1.8721933 2.281249 -1.6800162 -0.76751596 0.40049407 0.27279267 -0.88907933 -2.8311195 0.28961757
E9sus 1.3994964 0.31362882 1.0281633 -0.873313 3.0975442 2.5238144 -0.84506357 1.3164916 -0.2387557 0.50093544 0.61884 1.1579475 1.1699327
A9sus -1.1301609 -0.27260703 -1.2511843 2.195938 3.4146142 1.22969 0.14766741 -0.6492302 0.32198703 -1.6724377 0.8998473 1.1925806 -0.4375495
F9sus -1.0958562 0.43524688 0.8241615 1.4162613 1.5636176 0.4186751 -0.58218956 2.4646964 -1.7757951 -1.5230012 -0.5950127 -1.0836233 2.2581902
Bb9sus -1.2470102 1.1246896 2.153258 3.2228484 0.98215634 -0.1934871 -0.7759859 -0.11449027 1.8948452 -0.8645005 -1.5525113 -0.47871757 -0.55265296
Gb9sus -0.95759225 -1.2355717 -0.856936 0.57378805 -0.41654083 2.365476 -0.536371 0.41190776 1.8485937 -1.9871199 -0.98726004 1.1739001 2.1520271
B9sus -0.37048995 -0.26755083 1.8165412 1.0460156 -0.13319167 2.9519124 -2.3047233 -1.5296805 1.7773865 0.48548976 1.5110415 0.94969374 -0.44381794
G9sus -0.39559615 -0.29631963 1.4057746 -0.381841 0.9146355 1.2725269 -1.660747 -2.5672064 -1.7845936 -2.2815573 -1.2470125 -0.22013694 1.0503601
C9sus -1.096181 2.1280303 2.2074783 0.741909 0.32771137 2.0150046 0.3258522 -0.10989453 -1.8896949 -0.8377615 1.5921464 -1.2563425 -1.699279
Db9sus -1.2643121 2.2035694 -0.37111223 -0.55420023 0.05778916 1.6681726 -0.32695863 2.0266523 2.5790215 -0.8702276 1.8781383 -1.0274135 -0.8018621
D9sus 0.93496716 0.8447482 1.6300844 -0.84158045 0.74373555 -0.06627924 0.15258059 0.34510824 1.1054082 -3.9784522 1.5960386 0.6951326 0.29382
F-^7 -1.1877071 0.19169648 1.0490978 1.4850494 -0.6297964 1.7031333 -0.2464316 -2.9656515 -0.6728907 -0.8385191 -1.0087006 -2.7274244 -0.92921287
Gb-^7 -0.37976483 0.13859466 -1.1470032 1.0460467 1.6904757 2.175439 -1.7928501 -0.41936496 0.7660024 1.954036 2.7338605 -1.7619238 -0.6659501
G-^7 -0.6631167 0.62852776 0.70960057 3.485599 1.4540844 -0.7292049 1.1933388 0.43674225 -0.13096946 -1.8420914 2.269991 -0.950977 -1.0939263
Ab-^7 0.14498343 1.1296469 2.2871113 1.8699092 -0.59081936 0.43764135 0.22328609 1.8496773 3.9460685 0.26550668 0.7012625 -0.6453756 -0.37100002
A-^7 2.1321146 0.58996093 3.7366931 0.2571242 -0.1746226 1.6051732 -0.80225736 -0.049232285 -0.17003576 -0.0023091158 2.8306563 0.5876115 -0.2520509
Bb-^7 0.26460573 2.574308 1.448177 -0.7864628 -0.20806849 1.6644201 0.3060524 2.6938205 -1.2784505 0.47039047 1.1513084 -2.9077559 0.14752297
B-^7 1.0876386 0.005356815 -1.1702021 -0.68848234 0.29173294 2.134088 1.8183389 2.618347 0.2844199 -1.4092125 2.4276295 0.57334346 1.3808414
C-^7 1.2903502 0.30223745 2.9657338 -0.07025792 0.08137171 -1.0162927 -1.1028932 0.6851489 -0.17953165 -2.5328948 -1.2024118 -0.8609777 2.35805
Db-^7 1.9320656 -1.5168365 0.25912145 -0.6055391 0.6214769 2.231757 -1.6753293 0.15520824 1.1759679 0.4776219 -1.3798316 -0.79213357 2.8944516
D-^7 1.387186 -0.770178 0.47528976 1.4092265 2.9128764 1.5042939 -0.24416724 -0.48409024 -2.884646 0.31528428 -0.72079486 0.33374336 1.5808696
Eb-^7 -2.870936 -0.16118117 -1.4938482 2.2360032 0.51871884 -0.0892289 -2.057737 1.1033889 0.4871139 -0.55760086 -0.8370341 -1.5116637 2.0599606
E-^7 -0.68479276 -2.3028154 -0.45419922 2.1469913 -0.46938306 1.830881 -0.47718865 -2.3372116 0.4303935 -2.235919 1.1405054 0.95124096 0.7995245
D^ -1.4028574 -0.59574336 -0.5134745 0.02579713 2.5169964 0.34078267 0.58811146 -0.479578 0.57397145 -0.36015707 1.2552863 1.664569 0.20425324
Eb^ -1.6954013 0.8811327 1.6714836 1.1132903 0.8087385 -0.82394505 1.1999272 0.06602925 0.40798792 -0.53962195 -1.6575811 -0.56099546 -0.07385855
E^ -1.2668339 -0.36383796 1.142956 -0.67500156 -0.06292385 1.1973943 -0.9204326 -0.28278816 2.0034814 1.222468 0.81633353 1.2717246 0.5734556
F^ -1.224171 0.82875115 1.8879609 -0.33600992 0.33671293 0.5617539 1.7574745 0.023072552 -2.0341535 -0.51158124 0.73066425 0.1497683 -0.17283514
Gb^ -2.1937237 1.05781 -0.057792652 -1.5186862 -0.5138174 1.152007 0.34107894 1.3883173 1.8339899 0.5995963 0.32067767 -0.8062395 0.3366216
G^ -0.85490835 -0.11422677 1.1298575 -1.3144462 0.99937403 -0.7133939 0.40267974 0.10958368 0.3340275 -1.7383513 1.5621237 1.816123 0.96410275
Ab^ -0.07286431 0.7565547 1.5702996 -1.0573139 0.5402555 0.15272692 1.1950107 0.24767765 0.82574064 -0.20089273 -2.0611386 -1.455194 0.57373667
A^ -0.22133215 -0.53533643 0.5193928 -1.292007 2.046465 1.2214999 -0.26872364 0.31843525 0.7092703 1.0651789 0.49879217 1.938992 1.1994442
Bb^ -1.5197238 0.5933634 1.3565704 0.2072244 1.4253646 -0.71044624 0.8287866 0.94752175 -1.5767198 -0.4928554 -0.97572744 0.042849854 1.2398239
B^ -2.2158036 -0.71300584 -0.07436352 -0.5313786 -0.56556493 1.3058794 0.044732437 0.59278244 1.747319 0.08949305 -0.6606641 0.92344993 1.7082163
C^ -1.194 -0.42981547 1.6959884 -0.8284086 0.6325927 0.1799092 0.47258133 -1.7173933 -1.3665175 -1.411888 -0.35468644 1.3736563 0.8436999
Db^ -1.8235657 0.7606352 0.33256993 -1.3088031 0.34894356 0.94564503 -0.5771474 -0.599121 0.8754229 1.0609096 -1.2672935 -2.006601 0.25603577
F69 -2.0719676 2.161022 2.2721746 1.0204364 0.24123906 1.7510443 -0.2114079 -0.018659636 -1.6535007 -1.1610212 0.26355454 -0.57751924 -1.0714706
C69 -0.90019816 0.75279576 1.8355762 -0.5729118 0.713785 1.5680556 -0.8631572 -1.2218962 -2.2076888 -2.6647778 -1.4216691 0.21176971 0.97118896
Gb69 -1.7319272 1.7305651 -0.71558785 -0.7641721 -0.4779043 3.0822992 -0.50423586 1.0050331 1.9639722 -1.081335 1.4003849 -0.075141214 -0.7389806
Db69 -1.5573399 0.79308444 -1.452673 -1.1175978 0.9998713 2.6587582 -1.6975751 -0.5054492 1.2142221 -0.72017765 -1.5163016 -1.7003169 0.510001
G69 -0.3355298 1.6451817 1.8435723 -0.50905746 0.91457176 0.39066938 0.31677976 0.025869077 -0.039428286 -3.8646476 1.188616 0.83071685 -0.34988287
D69 -0.7069553 -0.0070803836 -0.3334329 1.00404 3.519457 1.1654519 -0.25732112 -0.9772692 0.064440355 -2.5187054 0.23711924 1.3447254 -0.11445773
Ab69 0.6026355 2.3230674 1.4061848 -1.109902 0.5446294 2.2653387 -0.19471098 1.2894202 1.9721669 -0.80482745 -1.8434131 -1.4191822 0.00365015
Eb69 -1.5569829 1.3784822 1.2709811 2.1096127 1.4996012 1.0482395 -0.2966847 0.5051282 1.3179431 -0.42691392 -2.7354994 -0.7033857 -0.11703215
A69 1.0822563 0.8706695 1.0530192 -0.2782498 2.46577 2.5745268 0.0065335277 1.3423585 0.23995368 -0.6996663 0.737644 2.4776258 0.4553988
E69 -0.86591715 -0.13187853 1.0546019 1.201175 0.78226006 3.3284247 -1.1449963 -1.0098184 1.2936779 -0.119959876 0.9324853 2.086891 -0.47403577
Bb69 -1.2821758 2.1903238 1.7351803 0.9628533 0.9454118 0.8424579 -0.15103485 2.689424 -0.83540297 -1.0328809 -1.4073862 -0.5321255 1.029467
B69 -0.9291551 -0.37759957 -0.4679083 -0.2187739 -0.5780358 3.3187163 -0.35095719 0.8462727 1.5759836 -1.7388544 -0.29125127 1.8331792 1.5867912
Gh -0.4404026 0.8984216 0.30969462 0.6376243 -0.42972562 0.604701 0.4669493 -0.65235853 -0.0735149 1.4226971 -0.5841019 -2.3545935 -0.68493927
Abh -0.09954985 -0.29854196 -0.765066 0.54056454 0.86336064 0.37268463 0.21598598 -0.021319648 0.57654643 0.80247486 2.609936 0.93221784 -0.10268094
Ah -0.4912375 0.93019253 1.4856268 1.230107 -0.17192335 -1.9987985 0.34842125 0.40021223 -0.09082031 -0.84198934 0.5403061 -0.8919732 0.16245966
Bbh 0.768504 -0.33710074 0.4387819 -0.26459 -1.2407978 0.7533803 0.074796446 0.50967944 2.4427 0.6087797 0.39451924 0.37347913 0.7593365
Bh 1.1530081 0.7484688 1.7108748 -0.64119464 0.45395905 -0.022918632 0.8608258 -0.4486086 -1.6370685 0.0044270703 0.6213864 0.5385154 0.03371176
Ch -0.329299 0.95091784 -0.746216 -0.5834773 -0.3127201 0.09974396 -0.070622936 1.7798377 0.42570767 0.99411416 -0.09751859 -1.5717683 1.092257
Dbh 0.79828906 -0.8877617 -0.33599585 -0.09576932 0.13331795 0.25310263 1.5529177 0.03419541 -0.4805153 -1.2227296 1.1304255 1.6225312 1.0736773
Dh 0.28458923 0.33675548 1.5570623 -0.22470476 -0.41767588 -0.7894624 -0.2996862 -0.38819224 -0.3173469 0.1767691 -2.0392604 -1.1066251 1.3514013
Ebh 0.6875179 -1.2668492 -0.76769334 -0.43991908 0.5671539 0.82213706 -1.3327991 -0.2332344 0.40282777 1.4586519 0.59138346 0.36425936 1.8151294
Eh -0.3815454 0.060993355 -0.26018706 1.1210239 1.2056017 -0.5295773 1.0911313 -0.6019994 -2.333321 -0.7483355 -0.48697224 -0.59136546 0.49909627
Fh -1.5606055 -0.35633332 -1.5140038 0.8695849 -0.8275718 -0.0502783 -0.08747991 0.20768283 1.996129 0.42862383 -0.5749071 -0.31737095 0.90831435
Gbh 0.28588116 -0.7931386 0.889544 0.5872283 -0.2919003 -0.35208473 -0.056472562 -2.302773 -0.3864253 -0.81741434 1.0529743 0.9808959 0.045876026
D7#9#5 0.19622432 1.6826825 1.415179 1.276671 0.42553502 0.4978352 -0.18390746 0.5935466 -0.61205304 -2.5543425 -0.24210747 -1.2784396 -0.43593228
A7#9#5 -0.2826554 0.6050704 0.6052159 1.5060213 1.6196564 1.0182508 -0.36405867 -0.23961681 -1.4815943 -2.3979409 -0.649864 -0.5324995 0.017395394
Eb7#9#5 0.704481 0.6747323 0.120419644 -0.119314194 0.49603286 2.533516 -1.0397178 1.0626947 2.3771994 -0.3200293 -0.08029584 0.16517027 0.12460758
Bb7#9#5 -0.72354645 0.6011017 -0.41852474 1.2298329 0.3306485 2.1319761 -1.3246273 0.67238665 2.0920107 -0.4143851 -0.9913785 -0.45400015 0.07865411
E7#9#5 1.0917459 1.0781758 1.425166 0.14847647 1.5429661 1.4290072 -0.06831397 0.30242875 -1.5298349 -1.8928776 0.67055845 0.25161603 -0.15270121
B7#9#5 0.12089342 0.27032155 0.77713317 1.1953635 1.1615477 1.8716743 -1.1165287 -0.99124825 -0.7347839 -1.627884 1.2016244 0.95995647 -0.5653915
F7#9#5 -0.33492586 1.1941632 -0.21385181 0.6806155 -0.015633447 2.4098487 -0.52438486 1.9234074 0.55715895 -0.510594 -1.086368 -1.5002462 0.61801106
C7#9#5 -0.8525907 1.3008635 0.7423188 1.3443258 -0.27120137 2.3136032 -0.22042324 0.30570248 0.1670814 -0.51786286 -1.0218105 -1.809727 -0.7181104
Gb7#9#5 0.5663165 -0.10716083 0.15004452 0.091592655 0.990451 1.834693 -0.69036156 0.31724584 -0.12550534 -2.4134245 0.86771476 1.7451307 0.83452713
Db7#9#5 -0.059089728 0.46830797 -0.13931912 0.21093883 1.1122758 1.9387558 -1.5635087 0.60816956 0.6882372 -1.0340437 2.2187088 1.1733543 -0.0030216195
G7#9#5 -0.29232213 0.81551874 1.085745 0.7544871 0.11049146 1.3855925 -0.92129695 0.08988051 -0.587036 -1.7499952 -1.9408545 -1.6434777 0.60168135
Ab7#9#5 0.41207516 -0.23265262 -0.8992581 -0.07354862 1.5842065 2.470069 -1.7929316 0.034737956 1.1835568 -0.53199226 0.18775328 0.4577176 0.701968
D7b5 1.1651247 0.10618904 0.15996876 -0.13910338 0.31022453 0.51245314 -0.95539504 0.09017441 0.3718017 -0.8694024 0.06333781 -1.5070766 0.64340794
Eb7b5 1.2283115 0.10451266 -0.2920725 0.5855332 1.623427 0.766164 0.35575792 0.39814058 0.24747303 -0.54237956 0.0045379945 0.10288822 0.14830431
E7b5 0.24768019 0.44200116 0.62635225 1.7272601 0.74759007 0.060220644 -0.6709759 1.0047898 0.22528596 -0.13150746 -0.107854545 -0.04910655 0.44393116
F7b5 0.1183445 -0.30112022 0.50537074 1.1495827 -0.83496386 1.1637291 -0.98076713 0.59126794 0.2148809 -0.20687993 0.3804724 0.21351327 0.9244349
Gb7b5 0.05228223 0.13744004 0.2515017 0.4863934 -0.70168686 1.5316144 0.21060562 -0.30269524 -1.3076508 -0.7560281 0.020155966 -0.3650644 0.25590444
G7b5 -0.30045986 0.27433985 -0.30047944 0.087293066 -0.3643104 0.79136175 -1.2915806 -0.0017295488 -0.009717315 -0.2975655 0.76858884 -1.2416174 0.39585194
Ab7b5 0.18234229 -0.07948208 -0.3892096 0.30181685 0.9414303 -0.35800374 -1.1270409 -0.052835453 0.19975069 -1.2927656 1.0462772 -0.59218615 0.6267982
A7b5 0.84342563 0.22149716 0.26744673 1.5205991 0.617433 0.35868037 0.44425753 0.19553843 1.0257342 -1.0526366 -0.9052583 -0.73542374 -0.033758264
Bb7b5 1.0684912 0.09271208 0.9576635 1.2194027 0.76440334 0.723587 -1.0673728 -0.022911478 0.5647058 0.49013087 0.21910709 0.3929837 0.17372331
B7b5 -0.33467922 0.3288186 0.64665526 1.2756462 -0.2004325 0.7698558 -0.74506867 0.82596314 -1.3677888 -0.4948544 0.9240459 -0.7392871 0.62535894
C7b5 -0.34799898 0.23349865 -0.23626633 0.6349527 -1.0668166 1.6653028 0.3677076 0.9591234 -0.049156412 -0.59386307 0.8079623 -0.012871091 0.30939195
Db7b5 0.25716522 0.27183002 0.54298764 -0.51192605 -0.4838079 -0.048975345 -1.3076851 0.047415297 0.03482452 -1.6211666 0.99341035 -0.12737049 0.82697564
Eb9#11 -0.18641102 1.4305222 0.22834918 0.18034947 1.7220167 0.91454417 -0.05077298 0.84976053 -1.2439743 -2.341426 0.09901866 -0.33825254 0.14167058
E9#11 -0.47659665 1.0128787 -0.4256999 0.68839043 0.7933335 1.7643933 0.11843713 1.4655755 1.9100175 -1.1397197 -1.2617773 -0.06390022 0.3060765
F9#11 0.6059259 0.33682424 1.502905 0.525633 1.0698645 1.8494997 -1.0863934 -0.52200395 -0.30060348 -1.6257677 -0.04071433 1.764439 0.3214891
Gb9#11 -0.69525665 1.3350748 0.9473109 0.4457757 0.10258497 2.545194 -0.85341334 0.6762919 -0.6762804 -0.2389883 -1.6190184 -0.9905012 0.3891309
G9#11 -0.64690953 0.5656125 -0.7891151 0.118743084 1.085527 3.006703 -0.7149294 0.650503 -0.02214554 -0.712306 0.9007137 1.0539064 0.2274078
Ab9#11 -1.1810135 1.340005 0.608231 0.837124 0.5691236 0.4289717 -0.8042256 0.021679165 -0.41853687 -2.6928775 -0.84232754 -0.3785813 0.14040044
A9#11 -0.06352409 0.39782092 0.1036741 -0.2699516 0.1941883 2.2431588 -0.98629063 -0.22242494 2.0419025 -1.2150869 -0.7046161 -0.017712524 0.09945975
Bb9#11 0.818504 1.212247 1.2812955 0.51611906 1.8383522 1.8651241 -0.096812986 -0.75395095 -0.8518815 -1.28997 -0.07186074 0.63194543 -0.80595386
B9#11 -1.2409528 1.6211944 0.035165306 1.323214 0.719715 2.2177305 -0.7626054 1.4458945 0.6059763 0.14462101 -0.65631366 -0.67725825 -0.28546
C9#11 -0.5737392 0.54631156 0.1670964 1.0098922 0.3546869 1.9174075 -0.18125597 0.7359482 0.110642366 -2.0766819 1.053551 1.8374989 0.15974408
Db9#11 -0.51839495 1.6103667 2.1556342 0.54312885 -0.6450677 1.4475782 -0.90511394 0.29298747 -0.18110478 -1.7175522 -0.92829096 -0.37885702 -0.09759719
D9#11 0.06324143 0.9803602 -0.02820076 -1.3406386 0.68785995 2.5078363 -1.7244672 0.2640139 0.92839545 -0.61712015 0.24312371 0.24399945 0.30186924
Dbsus -1.6707522 -0.22845246 -0.15220524 -0.6618343 0.79570794 1.5360875 -0.039158136 1.2162087 2.2492578 -0.5952879 0.75491905 -0.679431 0.8856471
Dsus -0.5325297 -0.58661187 2.0143917 -0.6555747 1.6966568 0.14202379 0.7022214 -1.0219992 0.12412886 -2.3834345 0.71543854 0.255142 0.5559545
Ebsus -1.0419375 0.08920638 1.5403017 -0.52797014 0.7356107 1.0320683 0.22024888 -0.040994264 1.8611916 -0.13387692 -1.3966564 -2.046924 0.48452997
Esus -0.07161304 -1.0716298 1.1015273 -0.66410404 2.4792717 1.9017575 -0.077475466 -0.45649654 0.320847 -0.28230238 1.428801 0.36958227 0.5967307
Fsus -1.9370207 0.6455609 1.5189323 0.467063 2.0852017 -0.12360628 -0.14453599 1.2759066 -0.36425313 -0.34849685 -0.39536938 -1.6274234 0.9501132
Gbsus -1.282504 -1.4743619 0.6364364 -0.111151114 0.3503188 2.1821082 0.2583794 0.31341824 2.1951792 -0.90210235 0.27455878 0.24637295 1.2410865
Gsus -0.65579385 0.060429137 2.88896 -0.70097965 1.1270874 0.658177 -0.036182594 -1.6249394 -0.8065512 -1.2530422 0.016073758 -0.5129697 0.11744755
Absus -1.0535276 -0.06441332 0.19381428 -1.20695 0.97183484 1.8295691 -0.39399466 0.30808648 1.2150335 0.033328336 -0.09774636 -2.2636793 0.7186827
Asus -0.8188737 -0.55047685 0.73938537 0.14040083 2.8125846 1.3485174 1.2739058 0.03794549 -0.056699347 -1.1065115 1.2372855 0.40665776 0.14702553
Bbsus -1.6499352 0.7312186 1.8448336 0.19358934 1.0556122 -0.47334027 -0.2045276 0.77322054 1.5880163 -0.97065425 -0.70659983 -1.6676733 0.51528025
Bsus -0.4189091 -1.5112187 1.4137504 -0.25891995 0.8100986 2.1677432 -0.20020077 -0.53118825 1.4429258 -0.28505075 1.1434973 0.7116872 0.85953903
Csus -1.386022 0.955412 2.12132 -0.31248146 1.8535599 0.7346797 0.5157982 -0.289386 -1.4171919 -0.28325585 -0.15901676 -1.237519 -0.18777652
G13b9 -0.07781111 0.50939375 1.4003499 -0.19023106 0.076435305 1.1149001 -1.1711861 -0.7180899 -0.9333469 -1.5646741 -1.1854882 -0.4910853 0.7440667
Ab13b9 -0.48084196 0.38773432 -0.8139353 -0.6106281 1.6112179 1.8016683 -1.4148709 0.22894599 0.69593227 -0.39255404 -0.6235468 -0.62626827 0.5733192
A13b9 -0.68923944 0.2337737 -0.070470236 1.4134396 2.0510933 0.8221683 -0.18793751 -0.027895765 -0.5527544 -1.8989425 0.12246212 0.17360009 -0.017704919
Bb13b9 -0.9196937 0.6102243 0.785844 1.564922 0.4001929 0.7256971 -0.98254657 0.19398554 1.8207254 -0.7392372 -1.2713636 -0.31739238 0.10374417
B13b9 -0.38729236 -0.060680132 1.17326 0.7310614 0.6409872 1.7391161 -1.3840663 -0.94483244 0.27987522 -0.723489 0.7412307 1.0358124 -0.15266946
C13b9 -1.2147409 1.3547174 1.0269042 0.80319613 0.07960524 1.8391598 0.13202879 0.06360622 -0.75591207 -0.71147585 -0.2587419 -1.1897837 -0.8137477
Db13b9 -1.0860871 0.91550404 -0.24621227 -0.24378087 0.7095988 1.3982977 -0.8507228 0.85628104 1.3677847 -1.0840693 1.3627396 0.21950941 -0.28578392
D13b9 -0.046683915 1.1093751 1.4348787 0.21911168 0.40159556 0.15981017 0.12602974 0.27602708 0.20305869 -2.9231188 0.19238484 -0.11292089 -0.14764518
Eb13b9 0.7249948 1.0279408 1.1046318 -0.53543514 0.61473495 1.9145826 -0.51186836 0.91417104 1.7450675 -0.1676254 -0.8241587 -0.57474613 0.13310345
E13b9 0.8148901 0.74908173 1.1894162 -0.20727211 1.8098814 1.299242 -0.37424287 0.8617296 -0.6479497 -0.60506445 0.59431213 0.89953864 0.39286956
F13b9 -0.79955786 0.86343634 0.5183749 0.74212784 0.52567166 0.99717444 -0.42289707 1.9883882 -0.22953472 -0.7993619 -0.8051242 -0.7923427 1.0997323
Gb13b9 -0.21083479 -0.45980322 0.20384316 -0.4330077 0.13540581 1.8640178 -0.4112473 0.21410708 1.0340148 -1.8282638 -0.04791567 1.4461004 1.0727344
Dadd9 -0.8091123 -0.7162339 0.81981975 -0.100952215 2.1034153 0.9238608 0.4192872 -0.2876075 0.44212386 -0.99821013 0.92671186 0.15178505 0.24793398
Ebadd9 -1.423895 0.16720216 1.4850608 0.28811848 1.0327079 0.49298838 -0.031346325 0.13625409 0.8448443 -0.5855234 -0.5509261 -1.4421403 0.2212066
Eadd9 -0.6883168 -0.92478716 1.1651243 -0.25531706 1.1191993 1.7597091 -0.31923038 -0.38336882 1.3913703 -0.2457331 0.9521221 0.0053915004 0.3435126
Fadd9 -1.2022339 0.5178961 1.7560471 -0.104903996 1.507409 0.64794683 0.27673346 0.06847677 -0.20145047 -0.59099096 0.3774605 -0.8831492 -0.27590454
Gbadd9 -1.3262142 -0.3127137 0.453813 -0.48295116 0.6499407 1.475058 0.27255526 0.59933025 1.6153703 -0.5117901 0.5713723 -0.91949385 0.3272948
Gadd9 -0.65938526 -0.48261705 1.7232971 -0.4980787 1.3873174 0.50238466 0.2528303 -0.5297776 0.5159251 -1.4648532 0.73101366 -0.15494232 0.28727528
Abadd9 -0.8979178 0.073380776 1.2265368 -0.5016668 1.0174613 1.0202672 0.23765247 0.3841558 1.146798 -0.48451796 -0.48858234 -1.858336 0.3566943
Aadd9 -0.041077517 -0.9528634 1.1722889 -0.4560993 1.9322656 1.560467 0.2892422 0.007720444 0.7182673 -0.4255786 1.0529648 0.32850203 0.5394538
Bbadd9 -1.4896779 0.15526122 1.3840531 -0.15819669 1.5501348 0.30734512 -0.15191841 0.66500103 -0.0904472 -0.8589474 -0.22449957 -1.1396817 0.69476235
Badd9 -0.9534518 -1.1881751 0.73814875 -0.38918146 0.7130445 2.0309389 0.052314103 0.19016723 1.555218 -0.84682685 0.13363378 -0.13580698 0.99324775
Cadd9 -0.85921603 -0.2336139 1.7736973 -0.2691542 1.6092192 0.7595068 -0.22385272 -0.8953597 -0.4375108 -0.93156606 0.25203755 -0.45405364 0.20249063
Dbadd9 -1.4414018 -0.22176802 0.26943943 -0.49238366 0.97068506 1.3056101 -0.24741367 0.08922294 1.2297388 -0.11064632 -0.1552219 -1.5858425 0.53410655
D-b6 0.24884859 -0.31515527 0.9389576 1.0555699 2.2106583 1.397065 0.80083877 -0.3197909 -1.763483 0.43825346 -0.3831227 0.27748978 0.8047053
Eb-b6 -2.531876 0.2565168 -0.35390872 1.1596531 0.529798 -0.17864738 -1.0911437 1.1713227 0.80835617 0.0946565 -0.22032091 -0.5140226 1.470459
E-b6 -0.7899839 -1.4996822 0.26037446 0.9169681 -0.48105487 1.3254714 0.32144207 -1.519316 0.32639384 -1.67352 1.0036309 0.711449 0.8114632
F-b6 -0.89520437 0.13911438 1.5125233 0.27046794 -0.60241145 1.6914765 0.506197 -1.7737793 -0.20821011 -0.35045302 -0.93027836 -1.8663911 -0.2465812
Gb-b6 -0.182763 0.15256485 -0.5889901 -0.20720543 1.7879705 1.2706469 -0.68721026 0.14655207 0.58117914 1.1504172 2.0201185 -0.9155201 0.14482255
G-b6 -0.6721193 0.23433125 0.8362318 1.8277664 1.6100235 -0.58021504 1.0125847 0.5422106 0.15579055 -1.5639625 1.3025855 -0.3079603 0.052954018
Ab-b6 -0.2929283 0.27618614 1.6496261 0.83930314 0.042930245 0.35044745 0.41299346 1.2938869 2.8408928 -0.23766449 -0.2334065 0.18353361 0.7103401
A-b6 1.0394402 0.29241338 2.8950963 -0.15039517 -0.17005405 1.1474311 -0.33585605 -0.48472396 -0.38371873 0.010642898 1.2704676 0.7898896 0.4382928
Bb-b6 -0.70354444 1.4409205 0.69921595 -0.88249767 0.21139726 1.5100019 -0.17005561 1.3558582 -0.91148955 0.539057 0.6517934 -1.7547202 0.46763813
B-b6 -0.112398095 -0.09270805 -0.78072006 -0.7126996 0.48593292 1.4164432 1.6077241 1.5941705 0.4084275 -1.0718431 1.6939243 0.54973465 1.0769503
C-b6 0.14545493 0.039558325 2.269808 -0.10423477 0.17617378 -0.7898219 -0.49861425 0.12187921 0.7861108 -1.9080901 -0.86098135 -0.49504548 1.6474305
Db-b6 0.9412502 -1.0406647 0.5998233 -0.8044196 0.86750585 1.3179431 -1.0716901 -0.15161295 1.1549257 0.36716962 -0.6608573 -0.8024372 2.0713441
C13sus -0.86621064 0.8498436 1.7324219 -0.20173816 0.6015708 1.8055611 -0.19867784 -0.0006582057 -1.0182614 -1.0214078 -0.06309162 -0.38133973 0.022518817
Db13sus -1.2156239 0.8963914 0.0027540158 -0.79799545 0.84136677 1.7343724 -0.93682736 0.87589955 1.4021696 -0.7679343 0.54272085 -0.39388558 0.2705065
D13sus -0.44018206 0.25287765 0.6932737 -0.53505695 1.2335511 0.59449685 0.08962716 0.03801706 0.29683638 -2.5175593 0.57991725 0.3283886 0.52684075
Eb13sus -0.12885289 0.5814344 1.1350461 -0.14993405 0.9221637 1.6314163 0.08374353 -0.0025555806 1.4673511 -0.89242923 -1.3639158 -1.0667282 0.029897336
E13sus 0.19280662 0.3308646 0.8637571 -0.41136828 1.9117732 1.9133859 -0.8118347 0.2916094 0.0067784926 -0.2050744 0.43442604 0.6478839 0.45710406
F13sus -1.3931987 0.6274746 1.189832 0.7348213 1.306038 1.1328652 -0.13200758 1.0763099 -0.6219421 -0.599092 -0.48731995 -0.6907004 0.7027835
Gb13sus -1.4176451 -0.18612507 0.2025321 -0.13279691 0.53907496 1.7987936 -0.23611145 0.5132583 1.3561822 -1.3244003 0.14668761 0.55307066 0.7278862
G13sus -0.94045097 0.5174286 1.7977514 -0.32228512 0.22402371 0.9103301 -0.8951643 -1.0152884 -0.3441079 -1.8979886 -0.107944086 0.14824611 0.42276183
Ab13sus -0.6005164 0.77964395 0.10479 -0.853367 1.1276314 1.9587225 -0.8211189 -0.34440798 0.80892164 -0.33634153 -0.5511132 -1.1774944 -0.025870731
A13sus -0.73295766 0.46223992 0.035679474 0.21578716 2.2758906 1.2988192 0.35951966 0.3374833 0.13436237 -1.2268573 0.95139605 0.3780282 -0.22403973
Bb13sus -1.0941486 0.7364485 1.4317598 1.2138999 1.1889741 0.49372238 -0.11568987 0.6513008 1.2483025 -0.9819734 -1.0640056 -0.5064589 0.089336514
B13sus -0.47213757 -0.30900785 1.2085303 0.12764537 0.7579413 2.0030205 -0.9019944 -0.06846613 1.2418653 -0.86760634 0.47180825 0.8695857 0.48694548
Bb7b9sus -1.1671569 1.0998039 0.5334483 1.1941714 0.2890244 0.78944635 -0.07458231 0.22651042 1.1938733 -0.59294015 -0.4024094 -0.93235457 -0.50591904
B7b9sus -0.047858052 0.119203486 0.6216525 0.12471728 0.71985126 1.5501788 -0.42299718 -0.7506352 1.0330354 -0.96203965 0.9187855 0.71275234 -0.3014378
C7b9sus -0.18203396 1.1402489 1.9055754 0.11067451 0.2099983 1.1061293 0.06447987 0.14162707 -0.14298332 -0.7475743 -0.14829564 -1.0600572 -0.18649882
Db7b9sus -0.4464963 0.88025415 -0.40690252 -0.6845109 0.8507626 1.1455218 -0.556697 0.9944637 1.3789262 -0.3688522 0.6659474 -0.1409232 0.35686335
D7b9sus 0.05301263 0.67166954 1.1783305 -0.002192905 1.1116369 0.49882787 0.511535 0.4565719 -0.27332145 -1.9881022 0.16166829 0.053782653 0.32905036
Eb7b9sus -0.29800972 0.8707777 0.45909208 -0.58291596 0.26582104 0.821502 -0.48983753 0.60600674 1.3637708 -1.1213692 -1.0805547 -0.5499289 0.6926718
E7b9sus 0.5739135 -0.084181815 0.67475283 -0.18443541 1.2048471 1.7740889 0.18866882 -0.14574406 -0.3708345 -0.8709249 0.047741912 0.68677217 0.5936167
F7b9sus -1.00982 0.65048766 0.2888257 0.42969266 0.9033089 1.0741366 -0.3134957 0.55502427 -0.49441633 -0.55012953 -1.1162713 -1.0865964 0.6874117
Gb7b9sus -0.39710873 -0.4708122 -0.52135193 0.41414675 1.0206068 1.1462922 -0.9013699 0.0010265905 0.91932905 -1.023957 0.07229094 0.8297046 1.0576565
G7b9sus -0.7464635 0.12636527 1.0092204 0.8045488 0.57566535 0.57040286 -0.502556 -1.0882883 -0.27350262 -1.4257336 -0.646982 -0.6575627 0.25865585
Ab7b9sus -0.6056365 0.1544493 0.007300601 0.07009819 0.9124788 1.4163203 -0.96658343 -0.5050117 1.5441248 0.009994852 -0.5276331 -0.22376956 0.2030229
A7b9sus -0.5302795 0.29201826 0.51865995 0.8070124 1.7579733 0.7537812 -0.35927454 -0.5871179 -0.41361052 -1.1851051 0.7380262 0.18573491 -0.23291813
Bb7b9#5 -0.6747634 0.60028195 -0.59913063 0.58396614 0.12359322 0.8974494 -0.830998 0.05791733 1.305198 -0.07391 -0.496986 -0.28295937 0.092211045
B7b9#5 0.052011315 0.06524101 0.37269717 0.64502406 0.4997101 0.6041895 -0.44560865 -0.8882142 -0.0013297681 -1.1484944 1.0064098 0.6035358 -0.13751398
C7b9#5 -0.17629345 0.89746755 0.5951555 0.8825859 -0.23238377 1.1115079 0.22832087 -0.10268729 0.22998141 0.17971501 -0.6166731 -0.9075489 -0.37692216
Db7b9#5 0.20411225 0.6135866 -0.16964042 0.015707988 0.5213806 1.1498502 -0.8156407 0.49136788 0.5801601 -0.111695014 1.5575353 0.5462822 0.07860247
D7b9#5 -0.2839047 1.0658622 1.0388373 0.6776672 -0.07991495 0.03203045 0.26968512 0.43564644 -0.3720026 -1.2662511 0.14708333 -0.509103 -0.026021427
Eb7b9#5 0.27715212 0.68882936 0.09029923 -0.39520362 -0.14571013 1.2562634 -0.3661756 0.73442554 1.4988297 -0.1744212 -0.040271666 0.2465492 0.34484208
E7b9#5 0.8463627 0.7515855 0.83400583 -0.13783145 0.59244424 0.6222849 -0.12666078 -0.11082095 -1.0489413 -1.0525057 0.41633585 0.28857514 0.3078977
F7b9#5 -0.22402838 0.8316903 -0.21987875 0.09411323 0.106272936 1.0454794 -0.2216319 0.90891767 0.34898776 -0.04052191 -0.7011162 -0.8102995 0.6260025
Gb7b9#5 0.3567227 -0.07703343 -0.4241253 0.06766318 0.7765 0.8991876 0.050466064 0.05000548 -0.20562774 -1.1207155 0.3601169 1.1518011 0.77912974
G7b9#5 -0.29122284 0.4295985 0.635122 0.67700624 -0.021905331 0.73165655 -0.48788938 0.031656064 -0.38904023 -0.6331735 -1.2911111 -0.8339939 0.7297189
Ab7b9#5 0.019293102 -0.17911881 -0.5725608 -0.08880241 0.5041101 1.2651209 -1.1786712 -0.1784084 0.54394656 -0.06655309 0.16417742 0.33897093 0.7758247
A7b9#5 -0.40291235 0.39229262 0.17674726 0.9645555 0.9229099 0.46414703 0.026740596 -0.532805 -1.2090384 -1.2166141 -0.24765396 -0.17861244 0.2961152
E13#11 -0.4246306 0.3261065 0.92293096 0.11497398 0.9503565 1.4083583 -0.6916604 0.5149313 1.0278578 -0.79157376 -0.3550868 -0.09866389 0.10936158
F13#11 -0.49793506 0.22437438 1.3058745 0.25427505 0.9092596 1.5924703 -0.47987765 0.26323125 -0.24001338 -0.9928997 0.12837727 0.19179013 0.13788621
Gb13#11 -0.8586603 0.5068388 0.5422974 0.12970884 0.75423187 1.7022688 -0.2978485 0.79741806 0.15748425 -0.67455626 -0.09857718 -0.4749221 0.22174627
G13#11 -0.7384647 0.085405126 0.49251917 -0.06421567 0.80531895 1.6964209 -0.4990666 0.41662583 0.3052228 -1.0886445 0.2686363 0.20499709 0.21788508
Ab13#11 -0.57225984 0.1160828 0.78840315 -0.05468893 0.74084175 1.324171 -0.48122683 0.20398918 0.26764435 -1.5362322 -0.4061177 -0.5466471 0.32631773
A13#11 -0.4720909 0.35726824 0.566163 -0.16054806 1.014963 1.5736368 -0.5584964 0.28250936 0.75465363 -0.77747643 -0.40627143 -0.126955 0.17347948
Bb13#11 -0.5296724 0.18768308 1.0092058 0.42524946 1.4258231 1.2593024 -0.61632967 0.22428858 -0.01494624 -1.1457397 -0.07386074 0.057729304 0.22910193
B13#11 -0.84634453 0.4120976 0.6926996 0.36124763 0.73105276 1.6012506 -0.4626151 0.71541226 0.44066077 -0.7443283 -0.19860235 0.006011679 0.09862654
C13#11 -0.59030205 0.30022383 0.9124297 0.20305502 0.56256616 1.5948391 -0.34164077 0.21366379 0.26386583 -1.1926428 0.29747766 0.4695319 0.054693248
Db13#11 -0.78046554 0.657676 1.0507371 -0.06828679 0.62763745 1.4612093 -0.53827447 0.18623675 0.19152863 -0.9076668 -0.02880087 -0.5037387 -0.010559514
D13#11 -0.4879817 0.34943253 0.2373132 0.052361254 1.1589676 1.6326344 -0.50689894 0.41563085 0.42669988 -1.0992094 0.27214244 -0.16754188 0.03140324
Eb13#11 -0.61852986 0.3937835 0.9933802 0.29849887 1.1348768 1.2100755 -0.07691705 0.47461182 0.33102918 -1.3487741 -0.279213 -0.18192214 0.023837626
E^7#5 0.16141073 -0.11762503 0.8126671 0.28310442 0.34994218 0.84384066 -0.8955688 -0.21288483 1.1831871 -0.021337232 0.4085367 0.27138212 0.15795976
F^7#5 -0.035574727 0.5407992 1.1009063 0.46219876 0.36800954 0.804967 0.18341571 0.27340767 -0.9370659 -0.32721013 0.321296 -0.4002825 -0.009392244
Gb^7#5 -0.7030972 0.51649636 -0.14054227 0.09356484 0.09795552 0.639623 -0.29885235 0.91711706 0.7463585 0.019096822 0.41948113 -0.24987587 0.3233845
G^7#5 0.043775965 0.09394312 0.39360508 -0.12600562 0.39871964 0.22055092 -0.13698499 0.057477515 0.06182234 -1.7183543 0.6898241 0.26524812 0.45123968
Ab^7#5 0.35475934 0.34944335 0.44494194 -0.21522683 0.21743165 0.8997471 -0.102305286 -0.08324701 0.40281606 -0.6667153 -0.64248097 -1.1735797 0.18644363
A^7#5 0.22848889 -0.023872077 0.10369097 -0.23629661 1.182528 0.8911156 -0.5018895 0.32716948 0.40835094 -0.21341434 0.4863604 0.3710429 0.5209956
Bb^7#5 -0.37563667 0.27706882 0.52249414 0.8218357 0.91205245 0.1434665 -0.120358095 0.68491274 -0.60563725 -0.74523264 -0.3989587 -0.47639686 0.69411224
B^7#5 -0.4036363 -0.28811765 0.02372792 0.48301476 0.3239335 1.0241674 -0.3442844 0.30005085 1.1267189 -0.5060125 -0.35462072 0.35055897 0.5702647
C^7#5 -0.108674765 -0.0035328167 0.79385555 0.2771357 0.07858871 0.6138943 -0.62654066 -0.8166756 -0.41161472 -0.93177897 0.1798526 0.22990686 0.25559667
Db^7#5 -0.52632594 0.7074056 -0.16531108 -0.06619792 0.34967098 1.0792134 -0.7125455 -0.29294935 0.29070717 0.060888752 -0.18004708 -1.1702017 -0.28178328
D^7#5 -0.30770618 -0.077800296 -0.6851577 0.4356535 1.1012617 0.56262296 0.10758149 -0.12810908 0.1593242 -0.91285473 0.94228816 0.18971255 -0.09237221
Eb^7#5 -0.06017126 0.31397945 0.8266665 0.8541735 0.352469 -0.08175587 -0.09966879 0.022827115 0.7312231 -0.82231474 -0.53137714 -0.6566166 0.07142151
D-7b5 -0.083715335 0.032555252 0.6480407 0.31738558 0.1690483 -0.18606113 -0.35962814 -0.1233784 -0.033191226 -0.16873308 -0.3581691 -0.5869076 0.5122715
Eb-7b5 0.07295535 -0.4484374 -0.23167768 0.059534863 0.04051908 0.7496795 -0.37038895 -0.3561418 0.3822634 0.32080683 0.331609 -0.35405126 0.44753912
E-7b5 -0.15800068 -0.026950752 0.12850097 0.24624848 0.6441308 0.19605151 0.028354255 -0.57134795 -0.48945108 -0.12500504 0.16494648 -0.24613662 0.15060471
F-7b5 -0.5030167 0.17116225 -0.2735422 0.4164933 -0.049898304 0.15721904 -0.2666324 0.061372463 0.6643557 -0.11137173 0.025193334 -0.70691746 0.13621338
Gb-7b5 0.13847934 -0.33265853 0.15736505 0.24530752 0.23995256 0.31198147 0.09059793 -0.7141985 0.16685072 -0.32821557 0.7331721 0.018859863 0.025020953
G-7b5 -0.052001417 0.2202653 0.43971103 0.258497 -0.030335447 0.34560293 0.37387565 -0.15390465 0.023590017 -0.023782331 -0.10654103 -0.9640455 0.0048017553
Ab-7b5 0.18715923 0.19494066 0.025342114 0.110499136 0.2026068 0.3873557 -0.20844612 0.08605934 0.3352414 0.37614787 0.91906345 -0.14725998 -0.018501446
A-7b5 0.033848558 0.32357067 0.39812177 0.30817962 0.26423958 -0.24963288 0.2887165 0.16745116 -0.059258424 -0.48917496 0.5615267 -0.392272 -0.04123239
Bb-7b5 0.19327128 0.10720736 0.3270628 0.039170686 -0.22894245 0.38720024 0.2785436 0.29159462 0.9601051 -0.029038766 0.12947468 -0.27827337 0.32736772
B-7b5 0.5845982 0.11146093 0.7071404 -0.20010658 0.4340292 0.21021222 0.025663225 -0.3011873 -0.37938422 -0.2926168 0.35596296 0.04636661 0.32452103
C-7b5 -0.03959752 0.2512622 0.001561159 -0.19331774 0.104657486 0.46368217 -0.02440539 0.44833437 0.032875057 -0.007255046 0.018557513 -0.9400576 0.41132098
Db-7b5 0.3384601 -0.43811342 -0.14745995 0.19010882 0.48576856 0.5573806 0.40448833 -0.156398 0.11120583 -0.4845821 0.2962673 0.31746444 0.48762688
Gb^9#11 -0.7045108 0.33690196 0.7358463 0.005449202 0.5645517 1.1133915 0.056951266 0.26190335 0.7962792 -0.5991839 -0.4636448 -0.5607948 0.203133
G^9#11 -0.4788485 -0.021948088 0.56385994 -0.3200055 1.1280977 0.8974631 -0.458165 -0.0851126 0.47092932 -0.7201487 0.2161789 0.28172106 0.40781552
Ab^9#11 -0.78969955 0.4413796 0.95654094 0.02057555 0.92289245 0.6287527 -0.14413221 0.15174484 0.068096116 -0.7792177 -0.41579393 -0.6769435 0.36535266
A^9#11 -0.60779506 0.001622688 0.18257779 -0.23262447 0.84651273 1.1188586 -0.17403768 0.1340113 0.9662945 -0.39233816 -0.029039381 0.25541627 0.488461
Bb^9#11 -0.7475101 0.2517297 1.0263015 0.03385122 0.98732483 0.514249 -0.19940405 -0.1793939 0.049563035 -1.1458151 -0.10875232 -0.08550516 0.32740802
B^9#11 -0.852931 0.20225333 0.5288602 -0.082965255 0.68833166 1.2932057 -0.307332 -0.13715 0.7488114 -0.36649457 -0.27539572 -0.48173964 0.19310518
C^9#11 -0.54394877 0.108591676 0.60370666 -0.094350316 1.0599976 0.8743601 -0.0709943 -0.31800652 0.1414091 -0.7539843 0.31211635 0.24148571 0.138148
Db^9#11 -0.91378945 0.40655878 0.793934 0.09811319 0.70749944 0.68732226 -0.08960733 0.24723604 0.49797505 -0.7098114 -0.31210053 -0.5689391 0.18583357
D^9#11 -0.6026132 -0.05695008 0.4706056 -0.1751269 0.8879035 0.85079575 -0.21772361 0.013424731 0.9695498 -0.5655616 0.46745867 0.32088056 0.2760736
Eb^9#11 -0.56278735 0.40410513 1.2009144 -0.11593466 0.7651495 0.7035242 -0.05758309 -0.08549743 0.09228978 -0.84245247 -0.10978776 -0.26097444 0.17881978
E^9#11 -0.6837218 0.4187275 0.3480103 -0.32286373 0.75693226 1.0285623 -0.41141748 0.18282285 1.0223241 -0.14747827 -0.14929381 -0.20760801 0.2294951
F^9#11 -0.5916258 0.2382446 0.8478332 -0.10917551 1.0686276 0.6857708 -0.1828163 0.0008731744 0.1174309 -1.226796 0.32872906 0.00022446446 0.25249305
Bb7b9b5 -0.2984439 0.30876464 0.35197648 0.3966661 0.51024336 0.51362944 -0.35958174 -0.2681291 0.754412 -0.36037853 -0.17421362 -0.37860146 0.018080605
B7b9b5 -0.29741728 0.24907996 0.3694341 0.48477224 0.7155449 0.80080557 -0.32561672 -0.2650664 0.2405341 -0.6032075 0.3807091 0.07584048 -0.13768116
C7b9b5 -0.30027506 0.47828224 0.5914862 0.368295 0.35420936 0.6427797 0.02319098 -0.03985146 0.4788088 -0.48306397 -0.03894989 -0.4176072 -0.22254899
Db7b9b5 -0.20043072 0.37223157 0.24363433 -0.015009791 0.48693717 0.6861726 -0.34867674 -0.109853536 0.5847431 -0.5151116 0.47531575 -0.08757218 0.055149455
D7b9b5 0.06496211 0.39364418 0.6434122 -0.016396908 0.5804438 0.5350765 -0.06053016 0.011722105 0.23835354 -0.93873453 0.1404896 -0.3812203 0.087502174
Eb7b9b5 0.10170721 0.38120058 0.44171485 -0.18232098 0.60001767 0.54831713 -0.22536467 0.13970932 0.56201303 -0.46433887 0.107158296 -0.27286148 0.24121313
E7b9b5 0.27205193 0.35042855 0.45143276 0.10183706 0.82948303 0.56175286 -0.11835554 0.094717905 0.023292871 -0.6766617 0.018471422 -0.024521004 0.27021644
F7b9b5 -0.1734388 0.31080878 0.24490261 0.056493565 0.6528145 0.6916093 -0.38367507 0.20319897 0.3875405 -0.4771123 -0.20706357 -0.41600522 0.3179226
Gb7b9b5 0.10186903 0.03551409 0.20625831 0.0077814506 0.69322014 0.7209798 -0.03333235 -0.07518763 0.18010378 -0.75025445 -0.016659444 0.05280887 0.3657291
G7b9b5 -0.39197677 0.1508841 0.35241395 0.09346316 0.59939635 0.61841327 -0.48318842 -0.38942432 -0.028836181 -0.7339658 -0.44778422 -0.52498686 0.343988
Ab7b9b5 -0.103488185 0.11874717 -0.11166978 0.0626406 0.6828774 0.7311321 -0.35369185 -0.32079944 0.6144476 -0.5067651 -0.040329676 -0.14888479 0.29183766
A7b9b5 -0.16921465 0.14105116 0.23430133 0.4827893 0.9473205 0.5126749 -0.17428271 -0.43698192 0.1905508 -0.706076 -0.1203521 -0.20664257 0.09167928
Bb9#5 -0.43780816 0.43858182 -0.5088633 0.31964847 0.323582 0.50787634 -0.9366923 -0.051762316 0.5390791 0.16279861 -0.52183986 -0.4461833 0.30830073
B9#5 -0.20342755 -0.0890167 -0.22649202 0.8558987 0.330422 0.5573544 -0.16592875 -0.70446455 -0.17421846 -0.27683467 0.3465662 0.5412926 -0.0043464554
C9#5 -0.49108717 0.8044174 0.5935941 0.886091 -0.15444382 0.22468966 -0.10658705 -0.25819227 0.06611799 -0.0014226895 -0.49080068 -0.20486699 -0.1765421
Db9#5 -0.0643706 0.33958587 -0.14004563 0.2118067 0.18947168 0.7077481 -0.7339108 -0.24941789 0.38257292 -0.026534952 0.8305259 0.21331401 -0.02243634
D9#5 -0.07481518 0.7885084 0.59972864 0.40359902 -0.14073706 0.14777143 0.37933102 -0.05092196 -0.322844 -0.6424453 0.37133598 -0.32301772 -0.17930445
Eb9#5 0.14663981 0.7950333 -0.08535601 -0.10965385 -0.21511224 0.43296054 -0.26161125 0.63213915 1.0021577 -0.13874502 0.09564982 -0.09247262 0.11773801
E9#5 0.72334856 0.54109687 0.6639685 0.02388348 0.095281996 0.28822416 -0.019541893 0.10173048 -0.32110786 -0.7699193 0.6144991 0.48146656 0.14556009
F9#5 0.22539331 0.7839917 0.2727139 0.03280463 -0.10202113 0.67665017 0.105642244 0.9092473 -0.09228179 -0.028071169 -0.42817432 -0.5875966 0.4478987
Gb9#5 0.53263885 0.23804562 -0.2068319 -0.11461824 0.38886634 0.6805239 -0.115724064 0.44520885 -0.22987477 -0.20026648 0.30158147 0.70531446 0.7045835
G9#5 -0.14175071 0.29641226 0.39508697 0.21367025 -0.042240284 0.13503371 -0.3159856 0.33216634 -0.537298 -0.52128005 -0.53715825 -0.29478177 0.84397954
Ab9#5 0.059748467 -0.10655582 -0.62552726 -0.17128766 0.26825196 0.6968808 -0.4697702 -0.08704451 0.46317583 -0.39041734 -0.50056493 0.24814358 0.888922
A9#5 -0.04094947 0.1770298 0.10683393 0.46270937 0.45180634 0.3252057 -0.08401876 -0.7346941 -0.7443213 -0.5775104 -0.4402058 0.24919125 0.3295843
C-69 -0.078722306 0.31302795 0.76040655 0.43190572 -0.12045686 0.7187077 -0.3561269 -0.18639186 -0.06779174 -0.87237 -0.3182196 -0.3605509 0.40231878
Db-69 0.14071338 0.27707902 -0.03396954 -0.05916621 0.43705106 1.1010232 -0.90173274 -0.049468983 0.44346312 -0.17237909 0.2997626 -0.38911602 0.31549966
D-69 0.014619015 0.12231192 0.31415755 0.73166406 1.0195303 0.66354066 0.09915977 0.10384682 -0.4065636 -0.6897892 0.24491124 0.020960703 0.19299395
Eb-69 -0.5887871 0.60571927 0.25257364 0.74910754 0.356043 0.64671963 -0.30886313 0.6888013 0.6785829 -0.3099569 -0.3042829 -0.16215445 0.3363866
E-69 0.08855338 0.068584844 0.65322185 0.57090473 0.06409454 0.89607656 -0.51410943 -0.20409757 0.11806027 -0.9062847 0.65523136 0.5142521 0.2561831
F-69 -0.16149624 0.5940855 0.5373256 0.3588407 -0.001992699 1.3419381 -0.14829586 -0.15050516 -0.33700985 -0.3354818 -0.17940228 -0.48222622 0.05368773
Gb-69 -0.08318288 0.3975918 -0.17684901 0.11560717 0.5402157 1.1827888 -0.30883074 0.4421175 0.030667339 -0.39839903 0.7484869 -0.036303245 0.2065281
G-69 -0.10760002 0.43404374 0.51472485 0.48081666 0.46664834 0.19047455 -0.17295708 0.2000769 -0.018238703 -1.3039967 0.22047952 -0.22342217 0.32173535
Ab-69 0.1722577 0.28788486 0.22288644 0.20825319 0.18153751 0.7678386 -0.526059 0.2530993 1.0538692 -0.55960786 -0.2143961 -0.11200872 0.44989663
A-69 0.44713804 0.2536253 0.6607787 0.316038 0.6003453 1.0258949 -0.28698888 -0.25288892 -0.32127777 -0.31020054 0.22578064 0.33195436 0.18557446
Bb-69 -0.42951205 0.66196465 0.0918289 0.56755203 0.23724967 0.99122655 -0.6431792 0.64988804 -0.28719145 -0.07826927 -0.05652272 -0.5772091 0.4253105
B-69 -0.18974586 0.075552024 -0.12579542 0.41586694 0.01592669 1.0406938 0.034720335 0.30096596 0.03553059 -0.9080304 0.52071035 0.36379385 0.47064814
A7b9b13 -0.19378006 0.5224619 0.24635686 0.33901244 0.70778537 0.41429844 -0.15287708 0.103623636 -0.30947712 -0.7661063 -0.11238058 -0.30313015 0.03972601
E7b9b13 0.08299433 0.58438826 0.635012 0.026123472 0.38682798 0.45923364 -0.1386389 -0.4297742 -0.31155047 -0.52660465 0.11655637 -0.014908991 -0.19839028
Bb7b9b13 -0.29309344 0.38548774 -0.24860801 -0.018651893 0.32824093 0.6446177 -0.43500668 -0.0014994164 0.8331865 -0.67859405 -0.28449315 -0.10166388 0.21348472
F7b9b13 -0.09731728 0.67687714 -0.217945 -0.015643219 0.39219144 0.63304156 -0.03829361 0.2510298 0.4329828 -0.31134748 -0.19225246 -0.42795545 -0.020009853
B7b9b13 0.068844 0.25389478 0.3975619 0.12400867 0.38151816 0.51145214 -0.24565774 -0.53043485 -0.03593299 -0.83381355 -0.011329258 0.20558937 0.047744222
Gb7b9b13 0.073176354 0.31281343 0.21354431 0.12948784 0.5054057 0.2697553 0.043242276 -0.035650283 0.08019972 -0.9313747 0.42829093 0.2836999 0.11568062
C7b9b13 -0.3037027 0.6594794 0.105124 -0.11041768 0.45925075 0.7120849 -0.46669367 -0.22577864 0.4172915 -0.27222323 -0.4269824 -0.6217606 -0.12672217
G7b9b13 0.040201776 0.4588123 0.4729341 0.027496466 0.41811234 0.5409911 -0.05021846 -0.0038716998 0.35746282 -0.6712899 -0.5906646 -0.47739613 0.042633828
Db7b9b13 -0.08371897 0.23136032 -0.09726158 -0.0034558733 0.8857126 0.5975522 -0.2017965 -0.065757 0.36412624 -0.54177696 0.3860093 0.34933218 0.0070146355
Ab7b9b13 0.076692685 0.13547218 0.12320873 -0.17435297 0.75696075 0.72542095 -0.6031038 -0.003945046 0.53167605 -0.24928218 0.0043061483 0.28711954 0.3761603
D7b9b13 -0.28704697 0.65180945 0.47647712 0.45466015 0.40737587 0.024726607 -0.16225964 0.010756002 0.23618531 -0.80264837 -0.16384414 -0.18359572 0.012609499
Eb7b9b13 -0.13097942 0.37177286 0.27102578 -0.003677449 0.16327251 0.68861777 -0.46971753 -0.0816844 0.8862013 -0.40328434 -0.014562571 0.16423868 -0.0248619
C7#9b5 -0.089499004 0.2020169 0.28120098 0.22293347 0.09634574 0.9099915 -0.16278099 -0.09118159 0.64765996 -0.1398668 -0.00953565 -0.55103964 0.148405
F7#9b5 -0.008586468 0.27815685 0.051397003 0.04909063 0.3221001 0.9933726 -0.37901637 0.254847 0.287684 0.0543496 0.25966644 -0.540084 0.40526316
Db7#9b5 0.21906249 0.098592 0.399322 0.18137176 0.73724926 0.6622613 -0.111551456 -0.061526537 -0.10638992 -0.23312041 0.73542315 -0.21119006 0.2147287
Gb7#9b5 -0.2249097 0.16149063 0.08806683 0.1781723 0.7041388 0.47315568 0.20634653 0.006315878 -0.30974495 -0.647391 0.40562898 -0.12985173 0.34941742
D7#9b5 -0.23849267 0.36274177 0.43262532 0.4769288 0.436935 0.3012819 0.02700661 0.3130936 0.22856316 -0.61716115 0.124526955 -0.7452398 0.15547839
G7#9b5 -0.267037 0.15207745 0.46586004 0.28954536 0.14046457 0.51475406 -0.28582236 0.08987835 0.51315427 -0.5437328 -0.11740415 -0.58016825 0.43735436
Eb7#9b5 0.24419469 -0.011344464 0.30158225 0.22641683 0.34329352 0.6780466 0.017438017 0.21055116 0.72635645 -0.4336332 0.50055534 0.18972756 0.3512846
Ab7#9b5 0.17188552 -0.14850858 0.340408 0.014453251 0.32685906 0.7707871 -0.34645298 -0.3317262 0.119079754 -0.46095514 0.18238562 -0.013559943 0.5513104
E7#9b5 0.16117083 0.37410358 0.8360604 0.15699224 0.355061 0.5601171 -0.04554854 -0.059055146 -0.17429362 -0.50599414 0.06302607 -0.39503554 0.2842755
A7#9b5 -0.21279564 0.08302184 0.409543 0.25619003 0.47067592 0.74498343 0.08054184 -0.13641432 -0.27523175 -0.36995876 -0.06356141 -0.5654892 0.24359344
Bb7#9b5 -0.37429798 -0.0015709852 -0.07304176 0.35461843 0.4389371 0.5606334 -0.19040088 0.16195194 0.5005397 -0.19704272 0.41736948 -0.07072068 0.39719427
B7#9b5 -0.23261191 0.08509491 0.64275616 0.47141317 0.3253816 0.39758924 0.009077635 -0.2519735 0.093990736 -0.76256424 0.1503146 -0.20665243 0.20815313
G7b9#11 -0.010090553 0.16438787 0.33624998 0.09728333 0.15152597 0.14870341 -0.058822893 -0.19881596 -0.11283376 -0.2848578 -0.1790065 -0.18427649 0.27377927
Ab7b9#11 -0.06950307 0.052326404 -0.078886084 0.12145589 0.39936033 0.31767902 -0.20604667 0.048981603 0.3167643 8.238395e-05 -0.010276051 -0.14060844 0.2852189
A7b9#11 0.007238567 -0.06512405 0.116716914 0.35452428 0.38884112 0.1661823 -0.026683075 -0.15888649 -0.15949567 -0.34395587 0.10377403 0.014938979 0.10861242
Bb7b9#11 -0.3299118 0.14841826 0.2783337 0.24068572 0.18878227 0.39245525 -0.20580135 0.07223392 0.19018613 -0.06382209 -0.057302397 -0.13605179 0.14585046
B7b9#11 -0.13612999 0.10877757 0.19666085 0.2588338 0.1673606 0.4063431 -0.19420297 -0.18262456 0.002346592 -0.2027929 0.45380726 -0.009835828 0.028263919
C7b9#11 -0.23396948 0.3434789 0.24280246 0.2857077 0.04650105 0.24927874 0.016211467 -0.081440024 0.041479204 -0.14977379 -0.112768255 -0.40984768 -0.0105637135
Db7b9#11 -0.06651939 0.08896205 0.06371995 -0.014120501 0.2048936 0.13271973 -0.13675942 -0.034337305 0.29441133 -0.17862898 0.3770689 0.079148434 0.24051137
D7b9#11 0.09079874 0.20834774 0.3664357 0.14495778 0.2250725 0.07536226 0.16575834 -0.08826804 0.17822064 -0.36825976 0.17524637 -0.104438744 0.03688478
Eb7b9#11 -0.030605122 0.21379752 0.19387218 0.040152222 0.22487779 0.35778913 -0.12044928 0.23221417 0.48303777 -0.05522486 0.040463325 -0.12001526 0.17048775
E7b9#11 0.10557071 0.14770181 0.2654931 0.0070216856 0.27809557 0.36806732 -0.043324046 0.07197928 -0.16180357 -0.39219505 0.21686904 0.24397296 0.26405022
F7b9#11 -0.06813767 0.26870087 0.17437278 0.20104189 0.061221 0.3342506 -0.14002825 0.2320398 -0.017780628 -0.25468966 -0.14105684 -0.22682057 0.24674271
Gb7b9#11 -0.087605305 -0.015009775 0.009128031 -0.12701494 0.11576201 0.3314618 -0.071505174 -0.015265981 0.14825337 -0.2473613 0.09389905 0.056221686 0.41214448
Db^13 -0.24136204 0.42335197 0.13263169 -0.05236921 0.53563577 0.4899347 -0.07987965 0.03653554 0.32297263 -0.4636677 0.058299035 -0.36871627 0.25602704
D^13 -0.069060095 0.38111442 0.27333918 0.042332973 0.50262725 0.3151737 -0.15628113 -0.08971171 0.43926254 -0.7019447 0.043906447 -0.024960222 0.2975649
Eb^13 0.012310788 0.3517316 0.44496152 0.07607051 0.47792554 0.43171546 -0.10457217 -0.13466169 0.40220043 -0.50473094 -0.10783317 -0.24575894 0.20073372
E^13 -0.002705823 0.20770088 0.28191936 0.110174164 0.5895648 0.6246159 -0.11145046 -0.05551728 0.30145067 -0.23127988 0.08100291 -0.22883597 0.27684036
F^13 -0.34943604 0.29401144 0.33541998 0.24305522 0.5403872 0.5168372 -0.15121242 -0.030004354 0.0505272 -0.45394003 0.08089835 -0.20534591 0.2847048
Gb^13 -0.21522492 0.31126082 0.250875 0.1716362 0.34959438 0.5531871 -0.18302833 -0.16131985 0.4357942 -0.62380046 -0.005217365 -0.104018174 0.33828768
G^13 -0.15413688 0.25883138 0.33472276 0.07610307 0.48280025 0.5256473 -0.25232115 -0.26445803 0.37108663 -0.5344536 0.03794304 -0.003996753 0.2640732
Ab^13 -0.12441662 0.362739 0.3060204 -0.004737149 0.61638963 0.6045835 -0.10785902 -0.20563222 0.30771384 -0.4310534 0.0030389493 -0.35195976 0.15066198
A^13 -0.19349653 0.41306847 0.12579957 0.15429053 0.691663 0.5255546 -0.04701362 -0.043003067 0.36972162 -0.3604912 0.19421473 -0.15124357 0.24934453
Bb^13 -0.2386538 0.37422478 0.36924914 0.31179667 0.45211312 0.38329092 -0.11649951 -0.0778846 0.30239266 -0.5786535 -0.01604451 -0.1878846 0.22546247
B^13 -0.13889724 0.35272875 0.3485951 0.11699035 0.3016894 0.6072034 -0.20745812 -0.2164978 0.34665433 -0.3146537 0.026536264 -0.076758035 0.25974247
C^13 -0.21114857 0.36553496 0.4269226 0.05170331 0.4971027 0.51973593 -0.19049537 -0.23735915 0.12820928 -0.3720126 0.17466879 -0.1292013 0.15891105
Bb9b5 -0.21748152 0.31993994 0.17577377 0.14037386 0.39263946 0.51200753 0.014951149 -0.08156218 -0.03555235 -0.0927869 -0.157221 -0.112673186 0.2840611
B9b5 -0.40299758 0.2972419 0.08433573 0.21594983 0.52343774 0.33354297 -0.023454232 -0.11350481 0.10063904 -0.26070252 0.05774642 0.041208733 0.24361774
C9b5 -0.3251333 0.28112775 0.26726413 0.16478923 0.16308363 0.42352065 -0.059021063 -0.13769874 -0.0068104933 -0.35749194 0.14700677 -0.03514341 0.22175775
Db9b5 -0.22935925 0.3644314 0.2928527 0.13304129 0.057776205 0.5902282 -0.17728944 -0.17707475 0.096530266 -0.21762952 0.060749747 -0.13323554 0.118282944
D9b5 -0.19983706 0.40828493 0.09804254 0.092973076 0.24192157 0.5127513 -0.0046389992 -0.029232088 0.032085665 -0.23725109 0.14162402 -0.1849605 0.08972714
Eb9b5 -0.2633945 0.45980063 0.12615891 0.09208665 0.3124213 0.3440186 0.09710956 0.026426064 0.18578807 -0.36840558 0.14918627 0.06397733 0.18756999
E9b5 -0.122216485 0.36321983 0.26046053 0.14827633 0.22124241 0.27534646 -0.11164053 0.12887843 0.34453043 -0.39534074 -0.036480132 0.021024967 0.32368696
F9b5 -0.13991937 0.36215672 0.32184467 0.09191077 0.25283727 0.58848673 -0.015111679 -0.013427609 0.1502478 -0.22975823 -0.049240366 0.017501017 0.24519145
Gb9b5 -0.06150102 0.40721205 0.18636055 0.012789799 0.2802493 0.30933934 -0.038130112 -0.021662991 -0.056984965 0.008177118 0.066240095 -0.009276768 0.32273838
G9b5 -0.14522134 0.266237 0.015830193 0.018482553 0.23315626 0.5208087 0.11168066 0.1339976 0.07899736 -0.29838705 0.056859598 0.009245067 0.48695785
Ab9b5 -0.117915235 0.2979531 0.14662753 -0.00520847 0.13936892 0.43103707 -0.055173744 -0.14036073 0.23064502 -0.37196952 -0.1408333 0.1364725 0.36165908
A9b5 -0.06598254 0.18993883 0.17568918 -0.026005322 0.29662538 0.33661747 -0.17192166 -0.2875904 0.15043932 -0.24168853 -0.16418181 0.034715 0.37819898
C7#9#11 -0.25554827 0.4668359 0.2173378 0.1240397 0.27261293 0.31747442 0.024571914 -0.05545736 0.07817324 -0.19346327 -0.092775285 -0.1445471 0.43039733
Db7#9#11 -0.20233434 0.32647148 0.11112168 0.102234505 0.30679426 0.4133794 -0.05099116 -0.12067698 0.20374885 -0.28565657 0.031676944 0.07980456 0.3724758
D7#9#11 -0.14732859 0.35640606 0.25467405 0.18344474 0.26358774 0.39412633 0.0766678 -0.23279032 0.018762084 -0.476855 0.034432072 0.018097637 0.38921216
Eb7#9#11 -0.20071557 0.37738344 0.18995288 0.08174394 0.34701174 0.45449632 -0.041543156 -0.17542036 0.3492211 -0.1382928 0.11063341 -0.12610628 0.27493247
E7#9#11 -0.15208608 0.37529117 0.11910776 0.16908707 0.4250146 0.29094067 -0.05921306 -0.14570425 0.115213156 -0.26001796 0.2582349 0.04286021 0.39917427
F7#9#11 -0.16742082 0.47592992 0.2263775 0.18901652 0.38238144 0.37045228 0.01755118 -0.15042758 0.20560728 -0.23917168 0.042591188 -0.080577895 0.23482932
Gb7#9#11 -0.10741638 0.30861512 0.25500202 -0.010711465 0.30559057 0.45145527 -0.11784893 -0.097886465 0.30565488 -0.16389641 0.24605824 0.14953457 0.34627682
G7#9#11 -0.13898475 0.4242048 0.25556397 0.13966687 0.27915335 0.48364282 -0.11035759 -0.09057977 0.015687706 -0.37410766 0.069461696 -0.09621219 0.31771913
Ab7#9#11 -0.17470472 0.51395744 0.1202829 0.033958554 0.23311308 0.4772801 -0.020603122 -0.117635325 0.24996547 -0.24101037 0.08077879 -0.17321223 0.2740082
A7#9#11 -0.108504005 0.37774915 0.20617482 0.0742092 0.37109512 0.27004483 0.025606595 -0.12112677 0.17235826 -0.3563952 0.20717496 0.055493996 0.42157876
Bb7#9#11 -0.13174188 0.45070955 0.22493032 0.063724294 0.29182673 0.4095546 0.07529876 -0.113184005 0.2427889 -0.2797987 -0.017097257 -0.20812982 0.35484624
B7#9#11 -0.16126384 0.33038452 0.20296992 0.06495553 0.40472335 0.43750593 -0.04047298 -0.157834 0.15240014 -0.18778844 0.16423006 0.100864775 0.37952295
Gb2 -0.19639182 -0.03615266 0.09551905 -0.12379142 0.41157073 0.27782896 -0.01698485 0.08481653 0.15012239 0.020010952 0.06522727 0.018222937 0.108375736
Ab2 -0.31283274 -0.081671596 0.10350047 -0.10425382 0.13463926 0.23012456 -0.11256772 -0.04044068 0.30858243 -0.061729863 -0.12519196 -0.08676559 -0.02579479
G2 -0.3842813 0.004679607 0.12748386 0.0581556 0.21328956 0.15048815 0.026403094 0.06354497 -0.10424498 -0.23890628 0.048476975 -0.08193963 -0.012466281
A2 -0.27599046 0.022519141 0.23118715 -0.04362805 0.14898384 0.201465 -0.111103594 -0.2100187 -0.059630405 -0.24665578 0.10581863 0.03367168 0.07378799
Bb2 -0.19739124 0.24459814 0.14647825 -0.018651808 0.26335806 0.28824997 0.15989615 -0.085317716 0.10744172 -0.18160807 -0.089951165 -0.18232735 0.020497069
B2 -0.28578147 0.04345955 0.09656362 -0.021352919 0.25951687 0.0882031 -0.0690265 -0.037204687 0.22881 -0.07486091 0.14579755 -0.024046903 0.11630094
C2 -0.20099989 0.05111006 0.346809 0.021221675 0.21781024 0.2329641 0.094158284 0.10077669 0.1274827 -0.23684068 -0.09453293 -0.08394078 0.044452485
Db2 -0.2307619 0.047201037 0.19047664 -0.13513468 0.20058787 0.32381487 -0.119624466 0.00027353456 0.20934589 0.10782675 0.04712236 0.091687076 -0.04238487
D2 -0.26875547 0.031836998 0.22293723 -0.10114387 0.13231876 0.13407075 0.021404425 0.09523844 0.0046004867 -0.23236163 0.13370386 -0.07692722 0.02526684
Eb2 -0.31279603 -0.057736404 0.14237635 -0.12737066 0.21428661 0.15772925 0.06263461 0.06398557 0.33413285 -0.07489307 -0.05030596 0.017999452 -0.011205682
E2 -0.16181499 -0.012988761 0.1451309 -0.11660834 0.21692954 0.12301057 -0.017741842 0.0023850854 0.18274204 -0.22740114 0.033375848 0.07928562 0.10114667
F2 -0.22735216 -0.039979786 0.26947334 -0.14053681 0.18644099 0.25688654 0.047646664 0.011617199 0.070712835 -0.16099535 -0.18971616 -0.13738874 0.010062617
C11 -0.14655216 0.2713873 0.16252589 0.17611454 0.17364588 0.22040507 -0.13328797 0.09715206 -0.16359776 -0.20694254 0.07535258 0.043811213 0.106711395
Db11 -0.10072665 0.3452422 0.047748167 0.06750525 0.004645608 0.37414333 -0.04788817 0.047082197 0.21134645 -0.10625269 0.05554062 0.074079454 0.088375
D11 0.022801707 0.35491496 0.091653 -0.063406825 0.1275135 0.19837384 -0.103188634 -0.1983228 0.08078312 -0.328238 0.20066765 0.02955936 0.120932594
Eb11 0.09795442 0.42664456 0.02331276 -0.022192767 0.20374711 0.30833605 0.0094484445 -0.10553976 0.14941463 -0.19366094 -0.037144672 -0.19593191 0.107041575
E11 0.06398743 0.22586547 0.0036709977 0.024558675 0.26900166 0.32366338 0.027651897 0.019603632 0.11403406 -0.106449574 0.11656256 0.19397496 0.14896223
F11 -0.15546273 0.21696301 0.14224462 0.14671125 0.096890196 0.16417038 0.06631131 0.15010832 -0.06828058 -0.15193936 -0.12710343 -0.0045543513 0.25295112
Gb11 -0.052317563 0.20372392 0.015970262 0.0801439 0.051566634 0.3628042 -0.018347543 -0.05185844 0.15364149 -0.18869711 -0.0031314965 0.07163148 0.3359714
G11 -0.05047819 0.23137605 0.11539509 -0.04475016 0.0676027 0.19600973 -0.1173668 -0.10909587 -0.11911768 -0.24686815 0.043186463 -0.008828777 0.2409829
Ab11 -0.102592014 0.35163242 -0.009835771 0.09498956 0.07208547 0.32947183 -0.062227122 -0.04736197 0.11420417 -0.13946253 -0.02391575 -0.04767949 0.1422345
A11 -0.059387777 0.23391743 -0.007210199 0.1400389 0.3361162 0.27343556 -0.05906289 -0.11040334 0.17589846 -0.31614366 0.14520799 0.08756063 0.071791336
Bb11 -0.04565944 0.26636952 0.14521933 0.25707 0.20668499 0.27081358 -0.033004846 -0.042215236 0.013704452 -0.20262401 -0.13920832 -0.08824719 0.10464138
B11 0.044757158 0.2145847 0.111627944 0.16870952 0.23028354 0.3388914 -0.06838204 -0.07126608 0.154494 0.00922773 0.12154663 0.19533983 0.08185127
G5 -0.17498067 0.27531838 0.17527902 0.02363777 0.20359401 0.2673735 0.007945679 -0.10746061 0.027290318 -0.25264025 0.09278846 0.034922924 0.2662354
Ab5 -0.09916314 0.2755571 0.1435699 -0.0039111464 0.16295826 0.25541893 -0.030157443 -0.15305701 0.15863572 -0.20645714 -0.0110955015 -0.14907113 0.24633723
A5 -0.14933594 0.2859953 0.118597515 0.050769314 0.28527036 0.34693882 0.0063891853 -0.13758543 0.09045028 -0.19263804 0.12545462 -0.050698273 0.38568553
Bb5 -0.12804566 0.37372312 0.1202972 0.07926883 0.30304322 0.25363013 0.002814869 -0.033160582 0.12563398 -0.12935477 0.013375625 -0.0385222 0.37053177
B5 -0.13599595 0.23062216 0.09390476 0.139552 0.10362954 0.33713388 -0.035607457 -0.0483418 0.21299103 -0.10401809 0.06662105 -0.014511354 0.2870559
C5 -0.09656368 0.29835567 0.20650598 0.12895188 0.17832448 0.33464697 0.08651184 -0.17231247 -0.0013581138 -0.14333346 0.053437337 0.041988835 0.19536209
Db5 -0.15705194 0.31714985 0.103195794 0.034617756 0.08896704 0.4265271 -0.08874766 -0.025164906 0.18554072 -0.09132878 0.08780901 -0.20511644 0.20066245
D5 -0.15497798 0.22942147 0.19624898 0.07231378 0.34972435 0.35882798 0.09035067 -0.106216215 0.120066434 -0.15916014 0.14689349 0.008790753 0.2586393
Eb5 -0.051079012 0.347632 0.17441729 0.02611474 0.20565432 0.19749168 -0.032571133 0.040199988 0.24425253 -0.18269964 -0.013615341 -0.086588405 0.32526433
E5 -0.039609637 0.24425381 0.16810991 0.100844786 0.095508024 0.28272074 -0.06259375 -0.05836163 0.18227002 -0.1551631 0.07230554 0.17802984 0.33160254
F5 -0.13314982 0.33766854 0.24740513 0.09513281 0.229027 0.2418396 0.034598757 -0.07540308 -0.09771807 -0.18312562 0.045923937 -0.095578715 0.28689378
Gb5 -0.17191559 0.27086443 0.077845775 0.03930635 0.15278861 0.3382872 0.0021509822 -0.0082876375 0.14584842 -0.12890685 0.004728984 -0.072498284 0.21928735
Bb7b13sus -0.16618103 0.3397102 0.14178771 0.12887663 0.3714569 0.49458966 -0.0045250533 -0.28325364 0.1768934 -0.23334388 0.18616384 -0.10295208 0.38022783
B7b13sus -0.16835454 0.33463806 0.13464399 0.1321905 0.31694806 0.43519068 0.090113156 -0.17440264 0.23599492 -0.19528517 0.06574747 -0.015943596 0.5418014
C7b13sus -0.1367737 0.3812848 0.3539108 0.09608362 0.36852378 0.39491525 0.020679187 -0.16291776 0.25703236 -0.19010042 0.13881975 -0.059918657 0.4440737
Db7b13sus -0.16472694 0.4227451 0.25496677 0.18520162 0.38701648 0.43639934 0.03834143 -0.16286887 0.13312796 -0.20162107 0.065198265 -0.15557714 0.4755643
D7b13sus -0.28772298 0.31769177 0.24601926 0.16961285 0.40067092 0.4478023 0.13049929 -0.119838454 0.22530195 -0.24946296 0.117572375 -0.088635154 0.4786754
Eb7b13sus -0.24655959 0.39821723 0.21483676 0.13326792 0.36707646 0.33248156 0.10757431 -0.2645009 0.325856 -0.1756192 0.034241628 0.027059428 0.4529435
E7b13sus -0.18039952 0.33541068 0.13202453 0.09382655 0.36740857 0.4801677 -0.042802494 -0.1933318 0.33896285 -0.2351725 0.13861239 -0.043585714 0.46074173
F7b13sus -0.22547953 0.4418451 0.18650468 0.11607165 0.31845698 0.4436488 0.04721604 -0.07636205 0.19107375 -0.085102126 0.11051511 -0.17482828 0.4541708
Gb7b13sus -0.18402447 0.4940475 0.22928132 0.07222777 0.35445455 0.37377456 0.010525447 -0.120553836 0.24956343 -0.19441818 0.16683193 -0.10166873 0.49558717
G7b13sus -0.1352853 0.38997975 0.15599369 0.13296318 0.3742395 0.44333187 0.03818174 -0.17819555 0.25685585 -0.29068577 0.18379128 -0.01697427 0.32893154
Ab7b13sus -0.09557257 0.4072626 0.27751684 0.06521894 0.44223064 0.36618444 0.13731521 -0.270481 0.20200297 -0.26628375 0.20626612 -0.12795138 0.39722216
A7b13sus -0.2300483 0.39654258 0.34381735 0.080874205 0.3693636 0.42980438 0.039274808 -0.25294447 0.3164111 -0.13329878 0.038097195 -0.043956716 0.439078
E-#5 -0.22830607 -0.08408891 0.22570705 0.1853085 -0.054005176 0.49034005 0.000328149 -0.28074786 0.13143101 -0.2744852 0.22527562 -0.01098782 0.23458616
F-#5 -0.19442697 0.15546115 0.36330697 0.09151207 0.049594462 0.26375958 0.11446266 -0.30859527 -0.026739335 -0.15335874 -0.092811406 -0.21416217 0.19399732
Gb-#5 -0.13759415 0.11750714 0.0044292537 0.10726166 0.3085572 0.2843817 -0.08910492 -0.014853904 0.12900876 0.037972525 0.37143907 -0.120976135 0.2524822
G-#5 -0.08221773 0.24323452 0.26032484 0.32443312 0.20594321 0.18625045 0.10851269 -0.042378824 0.06010127 -0.3583874 0.214615 -0.050699122 0.10796344
Ab-#5 -0.13503857 0.22673772 0.31621623 0.1627469 0.029391367 0.2921006 0.058923487 0.055221092 0.47208077 -0.11683838 0.07830514 -0.050334632 0.27224496
A-#5 0.056265846 0.16120072 0.36636132 0.018345015 0.08868319 0.36461288 -0.009591288 -0.094215326 0.09740002 -0.024558138 0.25466248 0.062193286 0.19502917
Bb-#5 -0.10850219 0.30655676 0.17535149 -0.015122384 0.11608103 0.29263714 0.12275985 0.088003024 0.034315284 -0.09862042 0.08825063 -0.27542275 0.23718226
B-#5 -0.05621241 0.20644897 0.066015765 -0.0016212113 0.25829634 0.37121958 0.16054016 0.086927086 0.114970945 -0.3037798 0.22305162 0.030559167 0.36347803
C-#5 -0.12945056 0.1530384 0.40269077 0.04603463 0.08006174 0.023474805 -0.0061456477 -0.14010645 0.07188939 -0.32077596 -0.017375803 -0.18941613 0.4665939
Db-#5 0.07873791 0.01833002 0.19036797 -0.038446534 0.2059218 0.41161397 -0.1570657 -0.062065322 0.23527965 0.0012313102 -0.04257105 -0.100202516 0.48545966
D-#5 -0.07743679 0.10795075 0.27326095 0.09475294 0.41949436 0.39068198 0.14910914 -0.1558747 -0.20727478 -0.05951998 -0.036521386 -0.030196244 0.36622992
Eb-#5 -0.43227255 0.18873592 0.095768176 0.11931962 0.19450606 0.2008168 -0.06434901 0.0012893064 0.16799843 -0.064322464 -0.0012137803 -0.20809019 0.37621856
Gb7susadd3 -0.15000796 0.19780847 0.20649351 0.07923654 0.24008839 0.3090104 -0.093851626 -0.09035433 0.19593543 -0.16037531 0.08985512 -0.058694527 0.28178835
F7susadd3 -0.14538626 0.2170277 0.20181851 0.089223064 0.2861859 0.3216934 -0.023011714 -0.12009027 0.1568315 -0.21022548 0.038266018 -0.051693305 0.23164038
G7susadd3 -0.19962281 0.22545314 0.23902532 0.08615957 0.19913355 0.35511974 0.0194589 -0.053299945 0.15327647 -0.13391623 0.06168213 -0.071816154 0.27332267
Ab7susadd3 -0.120204195 0.21848808 0.10378238 0.023682568 0.16579819 0.28006402 0.002638096 -0.058285482 0.16284436 -0.23041122 0.092196465 0.0055617043 0.2518363
A7susadd3 -0.14009246 0.2870386 0.13333705 0.1089925 0.19592759 0.33029687 -0.011823719 -0.11115353 0.14779216 -0.31065816 0.072272055 -0.05529632 0.25717288
Bb7susadd3 -0.042699087 0.30747017 0.12718676 0.062167708 0.2868056 0.4010859 0.0053971317 -0.107074805 0.17434481 -0.21440513 0.06195695 -0.071470916 0.30453613
